{"sizes":[155,77,10],"layers":[{"whats":{},"weather":{},"like":{},"in":{},"omaha":{},"san":{},"juan":{},"new":{},"york":{},"cupertino":{},"albuquerque":{},"tell":{},"about":{},"las":{},"vegas":{},"pyeongyang":{},"philadelphia":{},"temperature":{},"outside":{},"diego":{},"snowing":{},"raining":{},"sleeting":{},"hailing":{},"hello":{},"there":{},"friend":{},"good":{},"morning":{},"day":{},"evening":{},"hey":{},"bye":{},"goodbye":{},"have":{},"nice":{},"god":{},"bless":{},"how":{},"do":{},"get":{},"to":{},"art":{},"museum":{},"denver":{},"nearest":{},"gas":{},"station":{},"my":{},"house":{},"fastest":{},"way":{},"home":{},"work":{},"quickest":{},"coffee":{},"which":{},"go":{},"googleplex":{},"stanford":{},"university":{},"airport":{},"directions":{},"best":{},"buy":{},"village":{},"inn":{},"id":{},"uncle":{},"jeffs":{},"pizzaria":{},"bar":{},"donglington":{},"ner":{},"prep":{},"take":{},"set":{},"timer":{},"ten":{},"minutes":{},"hour":{},"start":{},"five":{},"twenty":{},"alarm":{},"seen":{},"oclock":{},"tomorrow":{},"six":{},"thirty":{},"wake":{},"up":{},"at":{},"noon":{},"time":{},"meeting":{},"play":{},"some":{},"classical":{},"music":{},"on":{},"spotify":{},"listen":{},"undertale":{},"rock":{},"daily":{},"mix":{},"drop":{},"sick":{},"beats":{},"what":{},"does":{},"tribulation":{},"mean":{},"definition":{},"of":{},"card":{},"define":{},"phone":{},"apple":{},"feminist":{},"explain":{},"sanitize":{},"means":{},"defintion":{},"watch":{},"sink":{},"case":{},"spray":{},"explore":{},"would":{},"you":{},"be":{},"able":{},"meaning":{},"life":{},"roo":{},"mate":{},"send":{},"text":{},"pj":{},"that":{},"says":{},"world":{},"matt":{},"chris":{},"jon":{},"colin":{},"message":{},"eric":{},"micheal":{},"hows":{},"your":{},"been":{},"pat":{}},{"0":{"bias":-0.13567058742046356,"weights":{"whats":-0.20617687702178955,"weather":-0.17626355588436127,"like":-0.16372613608837128,"in":-0.5216125249862671,"omaha":0.13279029726982117,"san":0.08114565908908844,"juan":0.10762988030910492,"new":0.06572423130273819,"york":0.11707764863967896,"cupertino":-0.09847404807806015,"albuquerque":0.04244391247630119,"tell":0.05253925547003746,"about":-0.14851334691047668,"las":0.06348846852779388,"vegas":-0.08182583749294281,"pyeongyang":-0.030338572338223457,"philadelphia":-0.04978160187602043,"temperature":-0.28603604435920715,"outside":-0.21948440372943878,"diego":-0.182342529296875,"snowing":-0.011975882574915886,"raining":-0.09612691402435303,"sleeting":-0.25173139572143555,"hailing":-0.31216996908187866,"hello":-0.46806636452674866,"there":-0.24312226474285126,"friend":-0.18162934482097626,"good":0.170115128159523,"morning":-0.4591168463230133,"day":0.12133325636386871,"evening":-0.21729028224945068,"hey":0.05861049145460129,"bye":0.3896585702896118,"goodbye":0.272551029920578,"have":0.4084336757659912,"nice":0.26472803950309753,"god":0.4724660813808441,"bless":0.41281697154045105,"how":-0.2044614553451538,"do":0.010983094573020935,"get":-0.25842225551605225,"to":-0.09305430948734283,"art":0.14563822746276855,"museum":0.15285737812519073,"denver":-0.11271555721759796,"nearest":0.04791153594851494,"gas":0.03957103565335274,"station":-0.18949584662914276,"my":-0.20673540234565735,"house":-0.0865011215209961,"fastest":-0.0021334735210984945,"way":-0.12033142149448395,"home":-0.33173567056655884,"work":-0.13303306698799133,"quickest":-0.03462329879403114,"coffee":-0.1623479127883911,"which":-0.0008283993229269981,"go":0.0688999742269516,"googleplex":-0.014060255140066147,"stanford":-0.19041332602500916,"university":0.1298343390226364,"airport":-0.14269714057445526,"directions":-0.17723290622234344,"best":-0.17510521411895752,"buy":-0.003921539522707462,"village":-0.20606304705142975,"inn":-0.2338191270828247,"id":0.05795631930232048,"uncle":0.14397382736206055,"jeffs":-0.15021492540836334,"pizzaria":-0.05075861141085625,"bar":0.10348756611347198,"donglington":0.18706080317497253,"ner":-0.12587939202785492,"prep":-0.11555122584104538,"take":-0.34927961230278015,"set":-0.28114748001098633,"timer":0.6204413175582886,"ten":0.16137053072452545,"minutes":0.4127424955368042,"hour":0.19980663061141968,"start":0.31161782145500183,"five":0.09385714679956436,"twenty":-0.01915580779314041,"alarm":-0.5312783122062683,"seen":-0.034480344504117966,"oclock":-0.3136460483074188,"tomorrow":-0.41666048765182495,"six":-0.33281612396240234,"thirty":-0.24023142457008362,"wake":-0.22546952962875366,"up":-0.06897421926259995,"at":-0.19732464849948883,"noon":-0.097013458609581,"time":-0.27732494473457336,"meeting":-0.22982777655124664,"play":0.31487447023391724,"some":0.5395015478134155,"classical":-0.07197926193475723,"music":0.4082115888595581,"on":0.40533527731895447,"spotify":0.29315271973609924,"listen":0.2659097909927368,"undertale":0.2604907155036926,"rock":0.029015548527240753,"daily":-0.08371179550886154,"mix":0.23183488845825195,"drop":0.052540089935064316,"sick":0.23162442445755005,"beats":0.2680094838142395,"what":0.26304954290390015,"does":-0.14921502768993378,"tribulation":0.07284727692604065,"mean":-0.14739437401294708,"definition":-0.08600174635648727,"of":0.1643451452255249,"card":-0.11593957245349884,"define":0.008551564998924732,"phone":-0.16429194808006287,"apple":-0.048233482986688614,"feminist":0.029501769691705704,"explain":0.039033129811286926,"sanitize":-0.11566485464572906,"means":0.18405871093273163,"defintion":0.006288657896220684,"watch":-0.1387486606836319,"sink":-0.1443844884634018,"case":0.05327160656452179,"spray":0.12016758322715759,"explore":-0.08509735763072968,"would":0.1498999446630478,"you":-0.03585111349821091,"be":-0.02632034756243229,"able":0.12985411286354065,"meaning":-0.059980157762765884,"life":0.1160503476858139,"roo":0.009960698895156384,"mate":0.17816051840782166,"send":-0.049718208611011505,"text":-0.00745420902967453,"pj":0.03744492307305336,"that":0.1502005010843277,"says":-0.16079333424568176,"world":0.1184169203042984,"matt":-0.19673261046409607,"chris":0.1647026538848877,"jon":0.05751709267497063,"colin":0.15438498556613922,"message":0.28597885370254517,"eric":-0.03280466049909592,"micheal":0.054703425616025925,"hows":-0.029467716813087463,"your":0.132880300283432,"been":0.22074010968208313,"pat":0.2813628315925598}},"1":{"bias":-0.16340629756450653,"weights":{"whats":0.2526211738586426,"weather":0.063510961830616,"like":0.07048550248146057,"in":0.016277765855193138,"omaha":0.11205333471298218,"san":0.1427859216928482,"juan":-0.0030987211503088474,"new":0.06375777721405029,"york":0.018155617639422417,"cupertino":0.08293051272630692,"albuquerque":-0.12208308279514313,"tell":0.1506662666797638,"about":0.24270124733448029,"las":0.017010539770126343,"vegas":-0.05731239542365074,"pyeongyang":-0.042669717222452164,"philadelphia":-0.09687250852584839,"temperature":0.13551685214042664,"outside":-0.14976663887500763,"diego":-0.16179178655147552,"snowing":-0.05811847746372223,"raining":0.20769140124320984,"sleeting":0.29777857661247253,"hailing":0.2219739407300949,"hello":-0.8456865549087524,"there":-0.16800811886787415,"friend":-0.16766098141670227,"good":-0.4431205689907074,"morning":-0.16610467433929443,"day":-0.1470768004655838,"evening":-0.35447317361831665,"hey":-0.6149506568908691,"bye":0.5467711091041565,"goodbye":0.1674230843782425,"have":0.16924059391021729,"nice":0.3598126471042633,"god":0.10766970366239548,"bless":0.18585966527462006,"how":-0.2039891481399536,"do":-0.172237828373909,"get":-0.2849099338054657,"to":0.05372271686792374,"art":-0.17395247519016266,"museum":0.12487467378377914,"denver":-0.09775824844837189,"nearest":0.039190102368593216,"gas":-0.08157896995544434,"station":-0.21138200163841248,"my":0.1291712522506714,"house":-0.2470477670431137,"fastest":-0.13783742487430573,"way":-0.36017537117004395,"home":-0.5809527039527893,"work":0.049602311104536057,"quickest":-0.05708787590265274,"coffee":-0.0036051066126674414,"which":-0.12950579822063446,"go":-0.32957983016967773,"googleplex":0.06272178143262863,"stanford":-0.04800204187631607,"university":0.1555095911026001,"airport":-0.18736018240451813,"directions":-0.19793610274791718,"best":0.035228144377470016,"buy":-0.28660669922828674,"village":-0.015833353623747826,"inn":0.07872220873832703,"id":-0.06858240813016891,"uncle":-0.008885537274181843,"jeffs":-0.1273452341556549,"pizzaria":-0.059303127229213715,"bar":-0.09487032890319824,"donglington":-0.23569639027118683,"ner":-0.1382463276386261,"prep":-0.0811455249786377,"take":-0.4196596145629883,"set":0.14125476777553558,"timer":-0.15495115518569946,"ten":0.16416682302951813,"minutes":0.17885412275791168,"hour":-0.22122040390968323,"start":0.10662920773029327,"five":0.010491177439689636,"twenty":-0.07564016431570053,"alarm":0.2553448975086212,"seen":0.20099444687366486,"oclock":0.1980373114347458,"tomorrow":-0.15199397504329681,"six":-0.005574330221861601,"thirty":-0.04181370139122009,"wake":0.1984463781118393,"up":0.1252211183309555,"at":0.03377218917012215,"noon":0.17744554579257965,"time":-0.015861276537179947,"meeting":-0.1971547156572342,"play":0.858483612537384,"some":0.5241769552230835,"classical":-0.053780898451805115,"music":0.8496664762496948,"on":0.5565913319587708,"spotify":0.43471404910087585,"listen":0.6018931269645691,"undertale":0.45610111951828003,"rock":0.05803404003381729,"daily":0.08794694393873215,"mix":0.11713352799415588,"drop":0.23132304847240448,"sick":0.20003953576087952,"beats":0.10735832154750824,"what":-0.018880359828472137,"does":-0.004330420400947332,"tribulation":0.11746502667665482,"mean":-0.11840534955263138,"definition":-0.07503209263086319,"of":0.09278781712055206,"card":0.02761371247470379,"define":-0.27636751532554626,"phone":-0.0945773795247078,"apple":-0.1797671765089035,"feminist":-0.08161626011133194,"explain":0.2292095124721527,"sanitize":-0.07165703922510147,"means":-0.004119821824133396,"defintion":0.14083798229694366,"watch":-0.17540471255779266,"sink":0.147442027926445,"case":-0.11247288435697556,"spray":0.19306176900863647,"explore":0.003189260372892022,"would":0.22715917229652405,"you":0.23758642375469208,"be":0.10407940298318863,"able":0.16974280774593353,"meaning":0.25185495615005493,"life":-0.11703528463840485,"roo":0.14592225849628448,"mate":-0.20050717890262604,"send":0.4518953859806061,"text":0.8056771755218506,"pj":0.08682779222726822,"that":0.3091548681259155,"says":0.35433563590049744,"world":0.08755563944578171,"matt":0.22931085526943207,"chris":0.2540143132209778,"jon":0.09762420505285263,"colin":0.023959266021847725,"message":0.3569701015949249,"eric":0.15325821936130524,"micheal":0.22457236051559448,"hows":0.16589607298374176,"your":0.148071750998497,"been":0.04064738005399704,"pat":0.12167401611804962}},"2":{"bias":-0.09684716165065765,"weights":{"whats":0.039607662707567215,"weather":0.10391134023666382,"like":0.060904137790203094,"in":-0.04746278002858162,"omaha":0.07523877173662186,"san":-0.18620985746383667,"juan":-0.11320759356021881,"new":-0.15723679959774017,"york":-0.054064229130744934,"cupertino":0.1104172095656395,"albuquerque":0.1100877970457077,"tell":-0.4175058901309967,"about":0.0629541426897049,"las":0.1591583490371704,"vegas":0.043590281158685684,"pyeongyang":-0.06140758469700813,"philadelphia":-0.07440716028213501,"temperature":0.12095967680215836,"outside":-0.07563550770282745,"diego":-0.04484189301729202,"snowing":-0.04370831325650215,"raining":0.21139556169509888,"sleeting":0.04543107748031616,"hailing":0.2712051272392273,"hello":0.49789759516716003,"there":0.2907913029193878,"friend":0.26205798983573914,"good":0.07739879935979843,"morning":0.24820353090763092,"day":0.20697318017482758,"evening":0.18823926150798798,"hey":0.5182435512542725,"bye":-0.3503260612487793,"goodbye":-0.06723052263259888,"have":-0.1614040732383728,"nice":-0.15898776054382324,"god":0.24214348196983337,"bless":-0.10928651690483093,"how":0.017482750117778778,"do":-0.29909849166870117,"get":-0.3140014111995697,"to":-0.5343365669250488,"art":-0.11136570572853088,"museum":-0.11290568858385086,"denver":0.07733737677335739,"nearest":0.020278559997677803,"gas":0.1468714028596878,"station":0.0027086474001407623,"my":-0.17369990050792694,"house":-0.14195138216018677,"fastest":-0.049967337399721146,"way":-0.271007239818573,"home":-0.30925145745277405,"work":-0.10194621235132217,"quickest":0.1403944492340088,"coffee":-0.19780400395393372,"which":0.07001615315675735,"go":-0.15549319982528687,"googleplex":-0.20490960776805878,"stanford":0.055321212857961655,"university":0.14504705369472504,"airport":0.15580976009368896,"directions":-0.31011512875556946,"best":0.013273326680064201,"buy":-0.24740813672542572,"village":-0.23999065160751343,"inn":0.012630946934223175,"id":-0.03571735695004463,"uncle":0.11554628610610962,"jeffs":-0.17805926501750946,"pizzaria":-0.14764006435871124,"bar":0.0728875994682312,"donglington":0.16740433871746063,"ner":-0.1713254302740097,"prep":-0.06881475448608398,"take":-0.30588245391845703,"set":-0.11408547312021255,"timer":-0.3081165552139282,"ten":0.06839063763618469,"minutes":-0.13685588538646698,"hour":-0.06398458778858185,"start":-0.26390019059181213,"five":0.1309240460395813,"twenty":-0.09223932027816772,"alarm":-0.1932871788740158,"seen":-0.1198381558060646,"oclock":0.013847668655216694,"tomorrow":0.11558951437473297,"six":0.2016766518354416,"thirty":0.137262225151062,"wake":-0.019889021292328835,"up":0.02833935245871544,"at":-0.08255750685930252,"noon":-0.027469243854284286,"time":0.013935727067291737,"meeting":-0.04651162400841713,"play":-0.43937283754348755,"some":-0.20661166310310364,"classical":-0.20171011984348297,"music":-0.04678516834974289,"on":-0.16442929208278656,"spotify":-0.1613786369562149,"listen":-0.10023144632577896,"undertale":0.13992713391780853,"rock":0.03378217667341232,"daily":0.1820548176765442,"mix":0.052875567227602005,"drop":-0.05987326800823212,"sick":-0.04897749423980713,"beats":-0.04995976760983467,"what":-0.4543004035949707,"does":-0.21238090097904205,"tribulation":-0.1813238263130188,"mean":-0.15740063786506653,"definition":-0.4451931416988373,"of":-0.3446435332298279,"card":-0.23524877429008484,"define":-0.8328351378440857,"phone":-0.33680665493011475,"apple":-0.05768854543566704,"feminist":-0.30030906200408936,"explain":-0.29608145356178284,"sanitize":-0.050489623099565506,"means":-0.21891619265079498,"defintion":0.05471276864409447,"watch":0.022822093218564987,"sink":0.07126748561859131,"case":0.1061435416340828,"spray":-0.202020063996315,"explore":-0.15218369662761688,"would":0.139500692486763,"you":-0.18761809170246124,"be":0.05080030485987663,"able":-0.08655179291963577,"meaning":0.1560078263282776,"life":-0.12369559705257416,"roo":-0.11371919512748718,"mate":0.07695174217224121,"send":0.4200185239315033,"text":0.8379465937614441,"pj":0.046784140169620514,"that":0.03880072757601738,"says":0.07142649590969086,"world":-0.059903670102357864,"matt":0.023620299994945526,"chris":0.05654415860772133,"jon":0.18122242391109467,"colin":-0.03175348788499832,"message":0.3728088140487671,"eric":0.32176509499549866,"micheal":0.09280674159526825,"hows":0.03240367770195007,"your":0.23253172636032104,"been":0.12339439243078232,"pat":0.046762093901634216}},"3":{"bias":-0.23389090597629547,"weights":{"whats":-0.09286700189113617,"weather":-0.44907572865486145,"like":-0.029269985854625702,"in":0.27844780683517456,"omaha":-0.06462840735912323,"san":-0.03162357956171036,"juan":0.08270783722400665,"new":-0.050912316888570786,"york":-0.12082212418317795,"cupertino":-0.13616684079170227,"albuquerque":-0.0839381217956543,"tell":-0.24433349072933197,"about":-0.12914694845676422,"las":0.15629401803016663,"vegas":-0.17489686608314514,"pyeongyang":-0.07092554867267609,"philadelphia":-0.0585724338889122,"temperature":-0.1478501558303833,"outside":0.02061869390308857,"diego":0.037073079496622086,"snowing":-0.24350224435329437,"raining":-0.37749582529067993,"sleeting":-0.39170020818710327,"hailing":-0.23407958447933197,"hello":0.823414146900177,"there":0.24903565645217896,"friend":0.3539525270462036,"good":0.32066717743873596,"morning":0.40951308608055115,"day":0.19280517101287842,"evening":0.29871195554733276,"hey":0.37009018659591675,"bye":-0.5998332500457764,"goodbye":-0.286875456571579,"have":-0.33664271235466003,"nice":-0.14212433993816376,"god":-0.11671923846006393,"bless":-0.17850114405155182,"how":0.25384774804115295,"do":0.24656881392002106,"get":0.4286816716194153,"to":0.47199952602386475,"art":-0.054292675107717514,"museum":0.0526384562253952,"denver":0.14582261443138123,"nearest":0.19455449283123016,"gas":-0.1327228546142578,"station":-0.12440930306911469,"my":0.2998221218585968,"house":0.3327583372592926,"fastest":0.11340092122554779,"way":0.3270408511161804,"home":0.6257532835006714,"work":0.27731314301490784,"quickest":0.19630129635334015,"coffee":0.021434077993035316,"which":0.17850640416145325,"go":0.12276418507099152,"googleplex":-0.08260772377252579,"stanford":0.10189098119735718,"university":0.17197322845458984,"airport":-0.05758664757013321,"directions":0.24545058608055115,"best":0.019980190321803093,"buy":0.028301652520895004,"village":0.06456922739744186,"inn":0.2036207765340805,"id":0.20686344802379608,"uncle":0.07084229588508606,"jeffs":0.1035899817943573,"pizzaria":-0.11305250972509384,"bar":0.22736449539661407,"donglington":-0.057749900966882706,"ner":0.008422907441854477,"prep":0.04800537973642349,"take":0.5942584872245789,"set":0.09108856320381165,"timer":-0.4231146275997162,"ten":-0.06477825343608856,"minutes":-0.1369250863790512,"hour":-0.22723999619483948,"start":0.09657645970582962,"five":0.09160315245389938,"twenty":-0.011655093170702457,"alarm":0.26305264234542847,"seen":0.15637679398059845,"oclock":0.3935992121696472,"tomorrow":0.2887090742588043,"six":0.04379130154848099,"thirty":0.3479076027870178,"wake":0.09487715363502502,"up":0.46618929505348206,"at":0.09666075557470322,"noon":0.28258687257766724,"time":0.32141000032424927,"meeting":0.1180538609623909,"play":-0.46017229557037354,"some":-0.34116464853286743,"classical":-0.12766562402248383,"music":-0.6703546047210693,"on":-0.41248640418052673,"spotify":-0.330064982175827,"listen":-0.2935168147087097,"undertale":-0.08182668685913086,"rock":-0.3111794888973236,"daily":0.02039491944015026,"mix":-0.11903305351734161,"drop":-0.09865951538085938,"sick":-0.29730966687202454,"beats":-0.12127488851547241,"what":-0.2854559123516083,"does":-0.1448451280593872,"tribulation":-0.17416046559810638,"mean":-0.02966964617371559,"definition":-0.2837381064891815,"of":-0.10880467295646667,"card":-0.0820002406835556,"define":-0.4957789182662964,"phone":-0.19809898734092712,"apple":-0.12581007182598114,"feminist":-0.0811777412891388,"explain":-0.3297359347343445,"sanitize":-0.009716399945318699,"means":-0.15029902756214142,"defintion":0.09621789306402206,"watch":-0.17464575171470642,"sink":-0.045072730630636215,"case":-0.10745387524366379,"spray":-0.07742267102003098,"explore":-0.20070672035217285,"would":-0.14203639328479767,"you":-0.05601580813527107,"be":0.07139299064874649,"able":-0.13848255574703217,"meaning":-0.026751304045319557,"life":0.0721629410982132,"roo":0.23259101808071136,"mate":0.06174831464886665,"send":-0.17016230523586273,"text":0.2782451808452606,"pj":-0.15748152136802673,"that":-0.18389585614204407,"says":-0.10524465143680573,"world":0.10492274910211563,"matt":0.24242672324180603,"chris":0.07913141697645187,"jon":0.1362580507993698,"colin":0.061205267906188965,"message":0.021028878167271614,"eric":0.13664674758911133,"micheal":-0.15060855448246002,"hows":0.10206659138202667,"your":0.11781527101993561,"been":0.1014971137046814,"pat":0.25924229621887207}},"4":{"bias":-0.27186018228530884,"weights":{"whats":0.2367754578590393,"weather":0.0639258623123169,"like":0.2884517312049866,"in":0.10416420549154282,"omaha":-0.14169463515281677,"san":0.17749688029289246,"juan":-0.044083286076784134,"new":0.05045955255627632,"york":0.20755943655967712,"cupertino":0.0661383792757988,"albuquerque":-0.07063788175582886,"tell":-0.034913819283246994,"about":0.24969080090522766,"las":0.04884517937898636,"vegas":0.19067279994487762,"pyeongyang":-0.07292409241199493,"philadelphia":-0.17540402710437775,"temperature":0.30262506008148193,"outside":0.13938438892364502,"diego":0.06777222454547882,"snowing":0.0682014599442482,"raining":0.011547118425369263,"sleeting":0.03432927653193474,"hailing":0.009108573198318481,"hello":0.524383544921875,"there":0.10987067222595215,"friend":0.025649182498455048,"good":0.2223079800605774,"morning":0.347692608833313,"day":0.36128538846969604,"evening":0.2670034170150757,"hey":0.4455278217792511,"bye":-0.5448480844497681,"goodbye":-0.23249506950378418,"have":-0.20912811160087585,"nice":0.007745041511952877,"god":-0.22042213380336761,"bless":-0.19196760654449463,"how":-0.09218262135982513,"do":-0.14064288139343262,"get":-0.10962643474340439,"to":-0.6274240612983704,"art":0.04440915584564209,"museum":-0.16073422133922577,"denver":0.0342194102704525,"nearest":0.0003114414867013693,"gas":-0.15256594121456146,"station":-0.16263870894908905,"my":-0.23804737627506256,"house":-0.18674887716770172,"fastest":0.06609988212585449,"way":-0.3047880232334137,"home":-0.3698936402797699,"work":0.10977552831172943,"quickest":-0.06961888819932938,"coffee":-0.2222861349582672,"which":-0.18721576035022736,"go":-0.2571370303630829,"googleplex":-0.18880490958690643,"stanford":0.14169368147850037,"university":0.005895913112908602,"airport":-0.05431696027517319,"directions":-0.05197153985500336,"best":-0.1494429111480713,"buy":-0.15183191001415253,"village":-0.013948647305369377,"inn":-0.13500873744487762,"id":-0.20665955543518066,"uncle":-0.13298775255680084,"jeffs":-0.00867037195712328,"pizzaria":-0.047092732042074203,"bar":0.005863315891474485,"donglington":0.09702043980360031,"ner":0.13400645554065704,"prep":-0.04163403809070587,"take":-0.14534537494182587,"set":-0.11733382195234299,"timer":0.030436526983976364,"ten":0.12023303657770157,"minutes":0.09612607955932617,"hour":0.14431825280189514,"start":0.18856899440288544,"five":-0.11969533562660217,"twenty":-0.11245419085025787,"alarm":-0.22912122309207916,"seen":0.023476211354136467,"oclock":-0.07957862317562103,"tomorrow":-0.15194150805473328,"six":-0.0874723419547081,"thirty":-0.07576833665370941,"wake":0.044866643846035004,"up":0.1217438280582428,"at":0.08577406406402588,"noon":-0.15092721581459045,"time":0.16917657852172852,"meeting":0.10893891006708145,"play":-0.3548002243041992,"some":-0.31869691610336304,"classical":-0.026057077571749687,"music":-0.2493857443332672,"on":-0.2073129415512085,"spotify":0.013656804338097572,"listen":-0.02689005248248577,"undertale":-0.002231480088084936,"rock":-0.15562331676483154,"daily":0.10423463582992554,"mix":-0.08250053972005844,"drop":-0.12502363324165344,"sick":-0.013443655334413052,"beats":0.05278751254081726,"what":0.011730611324310303,"does":-0.028025653213262558,"tribulation":0.1431417465209961,"mean":-0.19418968260288239,"definition":0.026704540476202965,"of":-0.18682114779949188,"card":0.08319996297359467,"define":-0.29658615589141846,"phone":0.04181451350450516,"apple":-0.03452889993786812,"feminist":-0.07573550939559937,"explain":-0.00529738562181592,"sanitize":0.1515473872423172,"means":-0.14196552336215973,"defintion":-0.08662330359220505,"watch":0.06869693845510483,"sink":-0.15708111226558685,"case":-0.12785258889198303,"spray":0.06906938552856445,"explore":-0.12199705839157104,"would":0.12553296983242035,"you":0.08813731372356415,"be":0.06161430478096008,"able":0.10127653926610947,"meaning":-0.042546596378088,"life":-0.08183687180280685,"roo":0.16131335496902466,"mate":-0.14575931429862976,"send":0.08328787237405777,"text":0.2783798575401306,"pj":0.20871615409851074,"that":0.1988254338502884,"says":0.2218339443206787,"world":0.1325681358575821,"matt":-0.015983199700713158,"chris":0.2531723380088806,"jon":-0.024920087307691574,"colin":-0.023042548447847366,"message":0.37970975041389465,"eric":0.04526045545935631,"micheal":-0.0373048409819603,"hows":-0.03212185204029083,"your":-0.12300992757081985,"been":-0.006424364168196917,"pat":0.08399937301874161}},"5":{"bias":-0.20448526740074158,"weights":{"whats":0.19068704545497894,"weather":-0.1517593115568161,"like":0.14069299399852753,"in":-0.2024388462305069,"omaha":0.10848041623830795,"san":0.11349421739578247,"juan":-0.14051242172718048,"new":0.07115225493907928,"york":-0.07796614617109299,"cupertino":0.09911476075649261,"albuquerque":0.11371716111898422,"tell":0.28530657291412354,"about":0.009176871739327908,"las":0.11188965290784836,"vegas":-0.05174491927027702,"pyeongyang":0.19012011587619781,"philadelphia":0.02864997647702694,"temperature":-0.13835453987121582,"outside":0.06364141404628754,"diego":0.11807460337877274,"snowing":-0.06689145416021347,"raining":0.18808779120445251,"sleeting":-0.09191744029521942,"hailing":-0.034213837236166,"hello":-0.7996348142623901,"there":-0.25228509306907654,"friend":-0.35559532046318054,"good":-0.44764944911003113,"morning":-0.4798198938369751,"day":-0.2506464719772339,"evening":-0.22705711424350739,"hey":-0.5318898558616638,"bye":0.12099787592887878,"goodbye":0.194492906332016,"have":0.15312284231185913,"nice":-0.1247551217675209,"god":0.1109265461564064,"bless":0.1200527623295784,"how":-0.2552259862422943,"do":-0.19789177179336548,"get":-0.15389791131019592,"to":0.29478543996810913,"art":-0.1316121220588684,"museum":-0.14485816657543182,"denver":-0.18399673700332642,"nearest":-0.19507920742034912,"gas":-0.19255618751049042,"station":0.03566563501954079,"my":-0.2657966911792755,"house":-0.21692126989364624,"fastest":0.0026045406702905893,"way":-0.2613677978515625,"home":0.047617584466934204,"work":0.1627420336008072,"quickest":-0.15943892300128937,"coffee":0.09179427474737167,"which":-0.03216755390167236,"go":-0.11861467361450195,"googleplex":-0.17929236590862274,"stanford":-0.02925220876932144,"university":-0.1689998209476471,"airport":-0.08374987542629242,"directions":-0.08436975628137589,"best":-0.14520148932933807,"buy":-0.15036047995090485,"village":-0.046416450291872025,"inn":-0.026896188035607338,"id":0.1324547529220581,"uncle":-0.0263641569763422,"jeffs":0.0915728509426117,"pizzaria":-0.013942621648311615,"bar":-0.06339645385742188,"donglington":-0.16844499111175537,"ner":-0.09685090184211731,"prep":-0.11063447594642639,"take":-0.11873020976781845,"set":-0.04525602608919144,"timer":0.7397655248641968,"ten":0.2043648660182953,"minutes":0.4922178387641907,"hour":0.23530839383602142,"start":0.008592278696596622,"five":0.23221053183078766,"twenty":0.1886250525712967,"alarm":-0.6183797717094421,"seen":-0.21655429899692535,"oclock":-0.18208228051662445,"tomorrow":-0.2724303603172302,"six":-0.29350730776786804,"thirty":-0.036928143352270126,"wake":-0.24131782352924347,"up":-0.1830793023109436,"at":-0.10808800905942917,"noon":-0.010783583857119083,"time":0.0392291434109211,"meeting":-0.032979995012283325,"play":0.09137798845767975,"some":-0.07614324986934662,"classical":-0.029709890484809875,"music":0.11438963562250137,"on":-0.07778804749250412,"spotify":0.005153326783329248,"listen":0.014907102100551128,"undertale":0.07172078639268875,"rock":-0.12627670168876648,"daily":0.008516781963407993,"mix":0.040220439434051514,"drop":-0.09643074870109558,"sick":-0.05778719112277031,"beats":-0.07630128413438797,"what":0.3931378126144409,"does":0.2523333430290222,"tribulation":-0.0007587220170535147,"mean":0.15602895617485046,"definition":0.09503360092639923,"of":0.15050995349884033,"card":0.185067817568779,"define":0.23466962575912476,"phone":0.005582906771451235,"apple":0.2577737867832184,"feminist":-0.022612862288951874,"explain":0.15503501892089844,"sanitize":0.022908251732587814,"means":0.20671148598194122,"defintion":-0.07222446799278259,"watch":0.03268658369779587,"sink":0.10174117237329483,"case":0.07353996485471725,"spray":0.10705452412366867,"explore":0.11283846199512482,"would":-0.10099765658378601,"you":0.1951744258403778,"be":0.11811660975217819,"able":0.058092352002859116,"meaning":-0.131129652261734,"life":0.03621057793498039,"roo":-0.07452847808599472,"mate":0.02525540627539158,"send":0.2399388551712036,"text":0.5649852752685547,"pj":0.15829138457775116,"that":0.13658586144447327,"says":-0.047037284821271896,"world":0.25042200088500977,"matt":0.17313070595264435,"chris":0.23542481660842896,"jon":-0.0589224137365818,"colin":0.15372183918952942,"message":0.38662582635879517,"eric":0.012659581378102303,"micheal":0.0036663031205534935,"hows":-0.038949158042669296,"your":0.16809606552124023,"been":-0.0899399071931839,"pat":0.19146385788917542}},"6":{"bias":-0.026160629466176033,"weights":{"whats":-0.46716758608818054,"weather":-0.0522908940911293,"like":-0.053021565079689026,"in":-0.24875183403491974,"omaha":-0.1747651845216751,"san":0.056799642741680145,"juan":-0.07720813900232315,"new":-0.022281000390648842,"york":0.14929679036140442,"cupertino":-0.1022181436419487,"albuquerque":0.006884906440973282,"tell":0.225751593708992,"about":-0.20366285741329193,"las":-0.04853207617998123,"vegas":-0.18934783339500427,"pyeongyang":-0.11727213859558105,"philadelphia":0.034614164382219315,"temperature":0.10610926151275635,"outside":0.0824914276599884,"diego":0.16972045600414276,"snowing":-0.16141706705093384,"raining":-0.24281930923461914,"sleeting":-0.20574048161506653,"hailing":-0.06941764801740646,"hello":0.7441583871841431,"there":0.3258364200592041,"friend":0.4451296627521515,"good":0.6451611518859863,"morning":0.5549846291542053,"day":0.36697134375572205,"evening":0.17622268199920654,"hey":0.470502108335495,"bye":-0.16680637001991272,"goodbye":-0.17646440863609314,"have":-0.05397317558526993,"nice":0.16269390285015106,"god":0.2476656138896942,"bless":0.05135286971926689,"how":-0.30808284878730774,"do":-0.2452448457479477,"get":-0.15643785893917084,"to":-0.8944138884544373,"art":0.04040459170937538,"museum":-0.10311245918273926,"denver":-0.24033096432685852,"nearest":-0.04812956228852272,"gas":0.03168286755681038,"station":-0.15722709894180298,"my":-0.14128628373146057,"house":-0.095004141330719,"fastest":-0.29980704188346863,"way":-0.2443799376487732,"home":-0.5239354968070984,"work":-0.16094307601451874,"quickest":-0.11320555955171585,"coffee":-0.2239297330379486,"which":-0.03067682683467865,"go":-0.06398905813694,"googleplex":0.055206622928380966,"stanford":0.10638029873371124,"university":0.08611096441745758,"airport":0.07695743441581726,"directions":-0.43152526021003723,"best":-0.2655182480812073,"buy":-0.2404310554265976,"village":-0.046381521970033646,"inn":-0.14196833968162537,"id":0.02304765209555626,"uncle":0.08425731211900711,"jeffs":-0.13278210163116455,"pizzaria":0.04101015254855156,"bar":-0.15341344475746155,"donglington":0.1014682948589325,"ner":-0.22462929785251617,"prep":-0.3114800751209259,"take":-0.32428810000419617,"set":-0.5589457154273987,"timer":-0.8186438083648682,"ten":-0.3070279657840729,"minutes":-0.3238336145877838,"hour":-0.2923610508441925,"start":-0.09126651287078857,"five":-0.08985967189073563,"twenty":-0.2927440106868744,"alarm":0.105879046022892,"seen":0.17280909419059753,"oclock":0.2049391269683838,"tomorrow":-0.01930210553109646,"six":0.17057932913303375,"thirty":0.1284525990486145,"wake":0.2447582632303238,"up":-0.12414499372243881,"at":0.15275445580482483,"noon":-0.09732295572757721,"time":-0.14905045926570892,"meeting":0.1696600764989853,"play":-0.1498512327671051,"some":-0.07069233059883118,"classical":-0.19000667333602905,"music":-0.07151598483324051,"on":0.21755744516849518,"spotify":0.07644856721162796,"listen":0.2834196984767914,"undertale":-0.08017443120479584,"rock":0.17701399326324463,"daily":-0.02643941529095173,"mix":-0.08084767311811447,"drop":-0.11638350784778595,"sick":-0.04047378897666931,"beats":-0.1404833346605301,"what":0.2833678722381592,"does":0.016454607248306274,"tribulation":0.1705067902803421,"mean":0.3366251289844513,"definition":0.4257127642631531,"of":0.7313938140869141,"card":-0.0009578157914802432,"define":0.5120397806167603,"phone":0.3920896351337433,"apple":0.31964290142059326,"feminist":0.08705153316259384,"explain":0.08568006008863449,"sanitize":0.23358242213726044,"means":0.29278188943862915,"defintion":-0.05948318913578987,"watch":0.12475764751434326,"sink":-0.10936545580625534,"case":0.089528389275074,"spray":0.1266632229089737,"explore":0.15318040549755096,"would":-0.030917340889573097,"you":0.3321046829223633,"be":0.03154512122273445,"able":-0.034724585711956024,"meaning":0.18603521585464478,"life":0.24555854499340057,"roo":-0.26764535903930664,"mate":0.00827418826520443,"send":-0.09624626487493515,"text":-0.8945257663726807,"pj":-0.08392645418643951,"that":-0.14815081655979156,"says":-0.1686892807483673,"world":-0.2711153030395508,"matt":-0.42925918102264404,"chris":-0.24969890713691711,"jon":0.009153316728770733,"colin":-0.17750781774520874,"message":-0.4003814458847046,"eric":-0.0035221362486481667,"micheal":0.12535716593265533,"hows":-0.10421875864267349,"your":-0.01860782504081726,"been":-0.0004496325273066759,"pat":-0.16587723791599274}},"7":{"bias":-0.20249371230602264,"weights":{"whats":0.19199331104755402,"weather":0.2087465077638626,"like":0.04712982103228569,"in":0.2819479703903198,"omaha":0.20869269967079163,"san":0.030474161729216576,"juan":-0.12428216636180878,"new":0.013611279428005219,"york":-0.16301700472831726,"cupertino":-0.09813635051250458,"albuquerque":-0.15161371231079102,"tell":-0.22094720602035522,"about":0.2530839145183563,"las":0.1465747207403183,"vegas":-0.06240423023700714,"pyeongyang":0.21751292049884796,"philadelphia":0.0035153531935065985,"temperature":0.20193226635456085,"outside":0.20704509317874908,"diego":-0.16316482424736023,"snowing":0.2908855974674225,"raining":0.3023207485675812,"sleeting":0.13796693086624146,"hailing":0.10870406776666641,"hello":0.6083100438117981,"there":0.13254719972610474,"friend":0.3587970435619354,"good":0.410518616437912,"morning":0.17984512448310852,"day":0.13886557519435883,"evening":0.33905553817749023,"hey":0.525780439376831,"bye":-0.810474693775177,"goodbye":-0.3941238820552826,"have":-0.09042439609766006,"nice":-0.47057658433914185,"god":-0.19277960062026978,"bless":-0.21177344024181366,"how":0.023458657786250114,"do":-0.03165246173739433,"get":0.1355128437280655,"to":0.07898517698049545,"art":0.03105141408741474,"museum":0.161531001329422,"denver":-0.11688364297151566,"nearest":0.1773715615272522,"gas":0.04070163518190384,"station":0.0905311182141304,"my":-0.07605183124542236,"house":-0.15548822283744812,"fastest":-0.07409504801034927,"way":-0.14747324585914612,"home":-0.0868348553776741,"work":-0.16529856622219086,"quickest":-0.03898206725716591,"coffee":0.046966712921857834,"which":0.08005878329277039,"go":0.15583941340446472,"googleplex":-0.17125101387500763,"stanford":0.05536707118153572,"university":0.1397641897201538,"airport":0.13795205950737,"directions":0.17639683187007904,"best":0.01095365546643734,"buy":-0.13414084911346436,"village":-0.17669551074504852,"inn":-0.17439670860767365,"id":-0.10088400542736053,"uncle":0.1909988820552826,"jeffs":0.0815477967262268,"pizzaria":0.0784042477607727,"bar":0.06704569607973099,"donglington":0.038436878472566605,"ner":0.15664531290531158,"prep":-0.04466217756271362,"take":0.12054760009050369,"set":-0.39592844247817993,"timer":-0.2736894190311432,"ten":-0.22756896913051605,"minutes":-0.2004958987236023,"hour":-0.06663995236158371,"start":-0.23293428122997284,"five":0.017842130735516548,"twenty":-0.003431430086493492,"alarm":0.12914016842842102,"seen":-0.1782786101102829,"oclock":0.14081592857837677,"tomorrow":0.13193099200725555,"six":0.025878526270389557,"thirty":-0.14111678302288055,"wake":0.030235182493925095,"up":-0.16285637021064758,"at":-0.031952083110809326,"noon":-0.200157031416893,"time":0.07852732390165329,"meeting":0.10950935631990433,"play":0.4812629818916321,"some":0.8129127025604248,"classical":0.18404720723628998,"music":0.6750463843345642,"on":0.5120123624801636,"spotify":0.47962290048599243,"listen":0.17360959947109222,"undertale":0.14676566421985626,"rock":0.023453643545508385,"daily":-0.019705582410097122,"mix":-0.07354722917079926,"drop":0.42499980330467224,"sick":0.23189932107925415,"beats":0.15282970666885376,"what":-0.5496119260787964,"does":-0.26725444197654724,"tribulation":-0.12316908687353134,"mean":-0.44245147705078125,"definition":-0.18754735589027405,"of":-0.4575669765472412,"card":-0.2098768800497055,"define":-0.8022874593734741,"phone":-0.0967770591378212,"apple":-0.37554100155830383,"feminist":-0.3737570643424988,"explain":0.029466621577739716,"sanitize":-0.219862699508667,"means":-0.041573747992515564,"defintion":-0.305579274892807,"watch":-0.11707223206758499,"sink":0.12138055264949799,"case":-0.10219357162714005,"spray":-0.02752346731722355,"explore":-0.338236927986145,"would":0.11869136244058609,"you":-0.13996244966983795,"be":-0.2170936018228531,"able":0.0932745486497879,"meaning":0.07863995432853699,"life":0.12189013510942459,"roo":-0.00972008053213358,"mate":0.21472349762916565,"send":-0.17624005675315857,"text":-0.2743096947669983,"pj":-0.10985849052667618,"that":-0.059804826974868774,"says":0.12236806005239487,"world":-0.04169529676437378,"matt":0.1274714171886444,"chris":-0.13910865783691406,"jon":-0.13108178973197937,"colin":0.04368339851498604,"message":-0.15916642546653748,"eric":0.07159925997257233,"micheal":0.004839505534619093,"hows":0.16429151594638824,"your":-0.13574717938899994,"been":-0.1611102670431137,"pat":-0.13047157227993011}},"8":{"bias":-0.31186172366142273,"weights":{"whats":-0.04514550045132637,"weather":-0.10015846788883209,"like":-0.03945409879088402,"in":-0.25268682837486267,"omaha":0.06954969465732574,"san":0.11514431983232498,"juan":0.014570777304470539,"new":0.012529348023235798,"york":0.02232501097023487,"cupertino":0.15498286485671997,"albuquerque":-0.026963066309690475,"tell":0.3709925711154938,"about":-0.29050037264823914,"las":-0.060008157044649124,"vegas":-0.13454319536685944,"pyeongyang":0.039094146341085434,"philadelphia":0.14787174761295319,"temperature":0.08353012800216675,"outside":-0.1490483433008194,"diego":0.01949419267475605,"snowing":-0.20637261867523193,"raining":-0.01623288355767727,"sleeting":-0.21455729007720947,"hailing":0.1354166865348816,"hello":-0.5847028493881226,"there":-0.2181713581085205,"friend":0.06373164057731628,"good":-0.5026430487632751,"morning":-0.3801038861274719,"day":-0.2987179458141327,"evening":-0.08963073790073395,"hey":-0.3812141716480255,"bye":0.02639143541455269,"goodbye":-0.22525838017463684,"have":-0.2736542522907257,"nice":-0.1473677158355713,"god":-0.03785906732082367,"bless":-0.1429971307516098,"how":-0.052364591509103775,"do":0.1732475906610489,"get":0.22896982729434967,"to":0.20081110298633575,"art":-0.06890863180160522,"museum":0.04838250204920769,"denver":0.13739465177059174,"nearest":-0.02621312625706196,"gas":0.041671134531497955,"station":-0.15860337018966675,"my":-0.1567373424768448,"house":0.1353173553943634,"fastest":0.1364506185054779,"way":0.24878253042697906,"home":0.26422178745269775,"work":-0.10000395029783249,"quickest":0.08583448827266693,"coffee":-0.10060334205627441,"which":-0.1867549568414688,"go":-0.045204900205135345,"googleplex":-0.05449828878045082,"stanford":-0.00020700949244201183,"university":0.1699543297290802,"airport":-0.08403553068637848,"directions":-0.06599646061658859,"best":-0.0595063790678978,"buy":-0.1073698028922081,"village":-0.12016750127077103,"inn":0.017726626247167587,"id":0.03941452130675316,"uncle":0.10857866704463959,"jeffs":-0.11853446811437607,"pizzaria":0.16494408249855042,"bar":-0.03875977545976639,"donglington":-0.15604516863822937,"ner":-0.13271646201610565,"prep":-0.14297182857990265,"take":0.05743977800011635,"set":0.09608820825815201,"timer":0.48847466707229614,"ten":0.047434475272893906,"minutes":0.22727254033088684,"hour":0.057713545858860016,"start":-0.05069764330983162,"five":-0.04724283888936043,"twenty":0.21530357003211975,"alarm":-0.2577661871910095,"seen":-0.01301136240363121,"oclock":-0.19487836956977844,"tomorrow":0.06431440263986588,"six":0.017866002395749092,"thirty":-0.03269227594137192,"wake":-0.007571509573608637,"up":-0.20982444286346436,"at":0.12541463971138,"noon":-0.1370231658220291,"time":-0.15176013112068176,"meeting":-0.11772231012582779,"play":-0.09920873492956161,"some":-0.03799675405025482,"classical":0.17551405727863312,"music":0.1063038781285286,"on":-0.039387091994285583,"spotify":-0.09742960333824158,"listen":-0.250230610370636,"undertale":0.040531307458877563,"rock":-0.07129643857479095,"daily":0.09611823409795761,"mix":-0.09554167091846466,"drop":0.019408294931054115,"sick":0.08433796465396881,"beats":-0.02518799714744091,"what":0.7501116394996643,"does":0.3240682780742645,"tribulation":0.27696841955184937,"mean":0.19729380309581757,"definition":0.3939891457557678,"of":0.82624351978302,"card":0.05505497381091118,"define":0.7184906601905823,"phone":0.17970338463783264,"apple":0.40751415491104126,"feminist":0.39541423320770264,"explain":0.08076567947864532,"sanitize":0.22231082618236542,"means":0.3037513196468353,"defintion":-0.03549804911017418,"watch":-0.0463319830596447,"sink":0.10957033932209015,"case":0.2481744885444641,"spray":0.01342538557946682,"explore":0.30051949620246887,"would":-0.11035113036632538,"you":0.025500565767288208,"be":0.022973695769906044,"able":-0.03649917244911194,"meaning":0.2047685831785202,"life":0.21067318320274353,"roo":-0.32192519307136536,"mate":-0.14515545964241028,"send":-0.009032516740262508,"text":-0.1801740825176239,"pj":-0.14387916028499603,"that":-0.23137587308883667,"says":-0.12071368098258972,"world":-0.1527356058359146,"matt":-0.28312960267066956,"chris":-0.10660836845636368,"jon":-0.024127209559082985,"colin":0.13367553055286407,"message":-0.05609576776623726,"eric":-0.19916179776191711,"micheal":-0.03739512711763382,"hows":-0.028381094336509705,"your":0.06291505694389343,"been":-0.01412142813205719,"pat":0.11992454528808594}},"9":{"bias":0.009318157099187374,"weights":{"whats":-0.39262670278549194,"weather":-0.2887822985649109,"like":-0.07992065697908401,"in":-0.45195749402046204,"omaha":0.118228480219841,"san":-0.15121066570281982,"juan":0.17186057567596436,"new":-0.07931230217218399,"york":0.049904048442840576,"cupertino":0.11123543977737427,"albuquerque":0.12929736077785492,"tell":-0.027204729616642,"about":-0.2121107429265976,"las":0.10954514890909195,"vegas":-0.03246575593948364,"pyeongyang":0.11310403794050217,"philadelphia":0.027377555146813393,"temperature":-0.13443435728549957,"outside":-0.23079916834831238,"diego":0.08707238733768463,"snowing":-0.29777687788009644,"raining":-0.2152339220046997,"sleeting":-0.16297712922096252,"hailing":-0.25407737493515015,"hello":0.42453497648239136,"there":0.155111625790596,"friend":0.2693730890750885,"good":0.2637481391429901,"morning":0.3033151924610138,"day":0.353489488363266,"evening":0.2765653431415558,"hey":0.43317651748657227,"bye":-0.07984907180070877,"goodbye":-0.12881234288215637,"have":0.0024709030985832214,"nice":0.30879729986190796,"god":0.44755229353904724,"bless":0.24666821956634521,"how":-0.25128376483917236,"do":-0.1585465520620346,"get":-0.032444391399621964,"to":-0.5985568165779114,"art":0.10938309878110886,"museum":-0.0485520139336586,"denver":0.11943591386079788,"nearest":-0.0023805180098861456,"gas":0.12965792417526245,"station":0.09084626287221909,"my":-0.10983224213123322,"house":-0.28240975737571716,"fastest":0.08979611843824387,"way":-0.09022399038076401,"home":-0.3662837743759155,"work":0.0665290504693985,"quickest":-0.1305379867553711,"coffee":-0.1401757299900055,"which":-0.14764225482940674,"go":-0.0543694794178009,"googleplex":0.14055213332176208,"stanford":-0.1518295705318451,"university":-0.026888146996498108,"airport":0.11327391862869263,"directions":-0.1030927449464798,"best":0.13030782341957092,"buy":-0.12478224188089371,"village":-0.22923390567302704,"inn":-0.1093529537320137,"id":-0.17527331411838531,"uncle":-0.05129513517022133,"jeffs":0.1618710458278656,"pizzaria":-0.04092555493116379,"bar":-0.21808218955993652,"donglington":0.125298410654068,"ner":-0.1467258632183075,"prep":-0.13370299339294434,"take":-0.080546073615551,"set":-0.9378422498703003,"timer":-0.5560995936393738,"ten":-0.175458163022995,"minutes":-0.4498957097530365,"hour":-0.17638182640075684,"start":-0.3742179572582245,"five":-0.13374829292297363,"twenty":-0.20350660383701324,"alarm":-0.427968829870224,"seen":-0.13227112591266632,"oclock":-0.3299870193004608,"tomorrow":-0.509794294834137,"six":-0.09160842001438141,"thirty":-0.03549659252166748,"wake":-0.29912564158439636,"up":-0.4630372226238251,"at":-0.2782028913497925,"noon":-0.3703061044216156,"time":-0.26529479026794434,"meeting":-0.028414275497198105,"play":-0.2645096182823181,"some":0.026011893525719643,"classical":0.14186973869800568,"music":0.04429512098431587,"on":0.022823378443717957,"spotify":0.17441916465759277,"listen":0.027243103832006454,"undertale":0.031247008591890335,"rock":0.17261137068271637,"daily":0.18698658049106598,"mix":-0.11266066879034042,"drop":0.11981432884931564,"sick":-0.12243258953094482,"beats":-0.10205277800559998,"what":0.32552552223205566,"does":-0.0601632185280323,"tribulation":0.045448966324329376,"mean":-0.00480988621711731,"definition":0.3336828947067261,"of":0.3215402662754059,"card":0.018703091889619827,"define":0.43827587366104126,"phone":0.2791719138622284,"apple":0.04598395898938179,"feminist":0.026647213846445084,"explain":0.33079850673675537,"sanitize":0.061357781291007996,"means":0.03592561185359955,"defintion":0.2547696530818939,"watch":-0.08584512025117874,"sink":0.1940249800682068,"case":0.16223254799842834,"spray":-0.06962668150663376,"explore":0.06900647282600403,"would":0.06873126327991486,"you":0.12586139142513275,"be":0.262028306722641,"able":-0.0964190661907196,"meaning":0.24349936842918396,"life":0.22473037242889404,"roo":-0.14694827795028687,"mate":0.03918156772851944,"send":-0.32179510593414307,"text":-0.5616461038589478,"pj":-0.24974298477172852,"that":-0.1821448802947998,"says":-0.21798713505268097,"world":-0.04633148014545441,"matt":-0.10625261068344116,"chris":-0.2078867107629776,"jon":-0.06544338166713715,"colin":0.00958837941288948,"message":0.013165497221052647,"eric":-0.04365492984652519,"micheal":-0.16650007665157318,"hows":0.008160026744008064,"your":-0.021285338327288628,"been":0.1556468904018402,"pat":-0.2719147205352783}},"10":{"bias":-0.08625847846269608,"weights":{"whats":-0.002063198946416378,"weather":-0.4653485119342804,"like":-0.37160345911979675,"in":-0.1121981143951416,"omaha":-0.1500675082206726,"san":-0.2133418172597885,"juan":-0.22926975786685944,"new":0.0648525133728981,"york":-0.06573794782161713,"cupertino":-0.14373359084129333,"albuquerque":-0.18931852281093597,"tell":0.04917456582188606,"about":-0.1626817137002945,"las":-0.15176299214363098,"vegas":-0.10453791916370392,"pyeongyang":0.016063552349805832,"philadelphia":-0.052459996193647385,"temperature":-0.4549349844455719,"outside":0.0024382551200687885,"diego":0.057451676577329636,"snowing":-0.48041024804115295,"raining":-0.3039371073246002,"sleeting":-0.4876391589641571,"hailing":-0.49566298723220825,"hello":0.6662142276763916,"there":0.29149165749549866,"friend":0.2882027328014374,"good":0.3610765337944031,"morning":0.30950814485549927,"day":0.2703230679035187,"evening":0.07306944578886032,"hey":0.35246989130973816,"bye":-0.13670414686203003,"goodbye":0.08806721121072769,"have":-0.1765407919883728,"nice":0.15390461683273315,"god":0.00977927166968584,"bless":-0.03945046290755272,"how":-0.015581791289150715,"do":-0.1455538272857666,"get":-0.021754059940576553,"to":-0.05375998467206955,"art":-0.006356895435601473,"museum":0.042815349996089935,"denver":-0.04887252300977707,"nearest":0.1318565309047699,"gas":-0.03559070825576782,"station":-0.03657376393675804,"my":0.19084186851978302,"house":0.11770551651716232,"fastest":0.19507810473442078,"way":-0.07676495611667633,"home":-0.11031253635883331,"work":-0.09677834063768387,"quickest":-0.14039097726345062,"coffee":-0.04326624050736427,"which":-0.16826416552066803,"go":0.19874663650989532,"googleplex":-0.18365532159805298,"stanford":-0.17219170928001404,"university":-0.15375985205173492,"airport":-0.004825799260288477,"directions":0.19893121719360352,"best":-0.09112891554832458,"buy":-0.12372367829084396,"village":0.08092889934778214,"inn":0.09699764102697372,"id":-0.11060359328985214,"uncle":0.013042344711720943,"jeffs":0.10448386520147324,"pizzaria":0.06451603025197983,"bar":-0.11138708889484406,"donglington":0.08400972932577133,"ner":-0.0507122240960598,"prep":0.010029028169810772,"take":0.21667274832725525,"set":-0.2599989175796509,"timer":-0.8596780896186829,"ten":-0.03450015187263489,"minutes":-0.42826715111732483,"hour":-0.17015664279460907,"start":-0.3515752851963043,"five":-0.31383541226387024,"twenty":-0.20323674380779266,"alarm":0.3051721453666687,"seen":0.13662289083003998,"oclock":0.29805707931518555,"tomorrow":0.17587798833847046,"six":0.005313558503985405,"thirty":0.15090328454971313,"wake":0.06732667237520218,"up":0.07189109176397324,"at":0.11026278883218765,"noon":0.1620028018951416,"time":0.239953875541687,"meeting":0.16864757239818573,"play":-0.6703226566314697,"some":-0.6115570664405823,"classical":0.0405961275100708,"music":-0.6377072334289551,"on":-0.36222928762435913,"spotify":-0.2764992117881775,"listen":-0.11360558867454529,"undertale":-0.2056128978729248,"rock":-0.2846243679523468,"daily":-0.045215897262096405,"mix":0.06437917053699493,"drop":-0.36455512046813965,"sick":-0.26170533895492554,"beats":-0.2669677138328552,"what":0.5425021648406982,"does":0.09048173576593399,"tribulation":0.3379642367362976,"mean":0.15500757098197937,"definition":0.4730050563812256,"of":0.6458196043968201,"card":-0.012127521447837353,"define":0.5167316794395447,"phone":0.23305541276931763,"apple":0.12050773203372955,"feminist":0.13004915416240692,"explain":0.11182849109172821,"sanitize":0.03033752739429474,"means":0.16483622789382935,"defintion":0.2550622522830963,"watch":0.07796722650527954,"sink":0.3124198317527771,"case":0.10856572538614273,"spray":0.017517775297164917,"explore":0.2671273350715637,"would":0.2612491548061371,"you":0.058592308312654495,"be":0.14095500111579895,"able":0.09269843995571136,"meaning":0.08065390586853027,"life":-0.0856773629784584,"roo":-0.10138595104217529,"mate":0.0018776340875774622,"send":-0.05236852169036865,"text":0.00028904745704494417,"pj":0.016856594011187553,"that":-0.23455573618412018,"says":-0.04744584858417511,"world":0.13164521753787994,"matt":-0.14859582483768463,"chris":0.15592122077941895,"jon":-0.12204532325267792,"colin":-0.02902839332818985,"message":0.0969388335943222,"eric":-0.03740982338786125,"micheal":0.06493472307920456,"hows":0.11266642063856125,"your":0.06376110762357712,"been":-0.024890076369047165,"pat":0.22288823127746582}},"11":{"bias":-0.2310183048248291,"weights":{"whats":-0.02956441044807434,"weather":-0.6641167998313904,"like":-0.27184098958969116,"in":-0.020558204501867294,"omaha":-0.010696121491491795,"san":-0.09921060502529144,"juan":-0.08104099333286285,"new":-0.13264712691307068,"york":0.005614378955215216,"cupertino":-0.1935446858406067,"albuquerque":0.045851241797208786,"tell":0.042383063584566116,"about":-0.09012103080749512,"las":0.06009069085121155,"vegas":-0.19108235836029053,"pyeongyang":-0.0701134130358696,"philadelphia":0.09727910906076431,"temperature":-0.15879933536052704,"outside":-0.2764762341976166,"diego":0.09094101190567017,"snowing":-0.3005814254283905,"raining":-0.1639048159122467,"sleeting":-0.27388647198677063,"hailing":-0.2604821026325226,"hello":-0.20500345528125763,"there":-0.09707676619291306,"friend":0.060770291835069656,"good":-0.15152813494205475,"morning":-0.11808618158102036,"day":0.09366162121295929,"evening":-0.05058102682232857,"hey":0.008388718590140343,"bye":-0.2186432182788849,"goodbye":-0.005056115798652172,"have":-0.19101421535015106,"nice":-0.10983091592788696,"god":-0.10243241488933563,"bless":-0.16264967620372772,"how":0.11181972920894623,"do":0.04597282409667969,"get":0.08737404644489288,"to":0.09175672382116318,"art":0.1399371325969696,"museum":-0.0792459025979042,"denver":-0.1318465769290924,"nearest":-0.04644957184791565,"gas":0.13360920548439026,"station":0.12117499858140945,"my":0.222462460398674,"house":0.09755409508943558,"fastest":-0.049764446914196014,"way":0.12632916867733002,"home":0.0006165102822706103,"work":0.06808130443096161,"quickest":0.05174882709980011,"coffee":0.009566930122673512,"which":0.08619055896997452,"go":-0.17422479391098022,"googleplex":0.015176824294030666,"stanford":0.18781529366970062,"university":-0.017761874943971634,"airport":-0.1918649673461914,"directions":-0.0739131048321724,"best":0.035598501563072205,"buy":0.031301312148571014,"village":-0.05468987300992012,"inn":-0.12138157337903976,"id":-0.03389693424105644,"uncle":0.04887181520462036,"jeffs":-0.04962071031332016,"pizzaria":-0.14412705600261688,"bar":0.043730102479457855,"donglington":0.18584220111370087,"ner":0.057389035820961,"prep":-0.1512344479560852,"take":-0.048650745302438736,"set":0.4066307246685028,"timer":0.1933944672346115,"ten":0.19508345425128937,"minutes":-0.060063693672418594,"hour":-0.13782276213169098,"start":0.11821112036705017,"five":-0.03341035172343254,"twenty":-0.08532556891441345,"alarm":0.4566098153591156,"seen":0.22112877666950226,"oclock":0.33155056834220886,"tomorrow":0.19953395426273346,"six":0.22460047900676727,"thirty":0.23375669121742249,"wake":0.3153700530529022,"up":0.3703574538230896,"at":0.18748098611831665,"noon":0.17120757699012756,"time":0.012956911697983742,"meeting":0.21831747889518738,"play":-0.30904442071914673,"some":-0.35627686977386475,"classical":-0.23536500334739685,"music":-0.40046414732933044,"on":-0.15381775796413422,"spotify":-0.3339667320251465,"listen":-0.20071007311344147,"undertale":-0.3002915382385254,"rock":-0.036692064255476,"daily":-0.08060872554779053,"mix":0.08199767023324966,"drop":-0.25163379311561584,"sick":-0.053961627185344696,"beats":-0.05031950771808624,"what":0.4525240659713745,"does":0.28680339455604553,"tribulation":0.32829102873802185,"mean":0.427302747964859,"definition":0.31776338815689087,"of":0.4856903851032257,"card":0.0878731831908226,"define":0.5572453737258911,"phone":0.048003047704696655,"apple":0.25481823086738586,"feminist":0.23505017161369324,"explain":-0.018112802878022194,"sanitize":0.20675556361675262,"means":0.1387144774198532,"defintion":0.1584528088569641,"watch":0.2328725904226303,"sink":0.1415085345506668,"case":0.15074026584625244,"spray":-0.10850411653518677,"explore":0.004031756892800331,"would":0.14645029604434967,"you":-0.1200849860906601,"be":0.06835058331489563,"able":0.04991385340690613,"meaning":-0.06254938989877701,"life":0.10530715435743332,"roo":-0.19149115681648254,"mate":0.04573700949549675,"send":0.21087366342544556,"text":0.20817114412784576,"pj":0.22542862594127655,"that":0.08463584631681442,"says":-0.06739629805088043,"world":0.19967669248580933,"matt":-0.00549470866099,"chris":0.04147752374410629,"jon":0.09635362029075623,"colin":0.11516363173723221,"message":0.3834225535392761,"eric":0.144637331366539,"micheal":0.21701349318027496,"hows":0.03796783462166786,"your":0.12616965174674988,"been":0.1788242906332016,"pat":0.22684839367866516}},"12":{"bias":-0.21339643001556396,"weights":{"whats":0.37318357825279236,"weather":0.5459147691726685,"like":0.10177981108427048,"in":-0.06055863946676254,"omaha":0.25016531348228455,"san":-0.02553419955074787,"juan":0.06626211851835251,"new":-0.1056085005402565,"york":0.2048804610967636,"cupertino":0.007563903462141752,"albuquerque":-0.15414702892303467,"tell":0.02529224008321762,"about":0.3055884838104248,"las":-0.06347788125276566,"vegas":0.007437274791300297,"pyeongyang":-0.06448989361524582,"philadelphia":0.13066789507865906,"temperature":0.2049957662820816,"outside":0.15614719688892365,"diego":0.12361592054367065,"snowing":0.1273266226053238,"raining":0.41990938782691956,"sleeting":0.22647714614868164,"hailing":0.2180858850479126,"hello":-0.17826925218105316,"there":0.0896439403295517,"friend":0.1212364137172699,"good":0.05697298422455788,"morning":0.010859907604753971,"day":-0.03276325762271881,"evening":0.15327757596969604,"hey":0.15185658633708954,"bye":-0.35534024238586426,"goodbye":0.05042170360684395,"have":-0.19060897827148438,"nice":-0.16488727927207947,"god":-0.14683987200260162,"bless":-0.2661016881465912,"how":-0.08019859343767166,"do":-0.14941364526748657,"get":-0.06724490970373154,"to":0.1651134043931961,"art":0.15971387922763824,"museum":-0.11736507713794708,"denver":0.1390497237443924,"nearest":0.04653577134013176,"gas":0.0071916356682777405,"station":0.16125759482383728,"my":0.05270065367221832,"house":0.08723083138465881,"fastest":-0.1831807941198349,"way":-0.22091759741306305,"home":-0.11633263528347015,"work":0.06452907621860504,"quickest":0.08982954919338226,"coffee":0.045844666659832,"which":0.01701294630765915,"go":0.1677081286907196,"googleplex":-0.015309395268559456,"stanford":-0.12379278987646103,"university":0.022615762427449226,"airport":0.10026741772890091,"directions":0.17055925726890564,"best":0.06600634008646011,"buy":-0.05019773170351982,"village":-0.04271630197763443,"inn":0.014023052528500557,"id":-0.1489942967891693,"uncle":-0.009772255085408688,"jeffs":0.1404549926519394,"pizzaria":-0.05838550999760628,"bar":-0.046276114881038666,"donglington":0.10416485369205475,"ner":-0.001989734126254916,"prep":0.16481079161167145,"take":0.2083488255739212,"set":-0.3697485029697418,"timer":-0.07527069002389908,"ten":-0.08534137159585953,"minutes":0.05089964345097542,"hour":-0.20712248980998993,"start":-0.2217446118593216,"five":-0.05719418078660965,"twenty":0.040811117738485336,"alarm":-0.4088038206100464,"seen":0.12376910448074341,"oclock":-0.014823571778833866,"tomorrow":-0.2327210009098053,"six":-0.07713500410318375,"thirty":-0.13827484846115112,"wake":-0.029308337718248367,"up":-0.18716320395469666,"at":-0.28900909423828125,"noon":-0.22227318584918976,"time":-0.2692538797855377,"meeting":-0.030091984197497368,"play":0.14546528458595276,"some":0.4480648636817932,"classical":-0.11043045669794083,"music":0.16235950589179993,"on":0.36290833353996277,"spotify":0.28768789768218994,"listen":0.14072266221046448,"undertale":0.25412434339523315,"rock":0.10872089862823486,"daily":0.02016409859061241,"mix":-0.03057923913002014,"drop":0.2500951588153839,"sick":0.04520519822835922,"beats":0.3170241415500641,"what":-0.4647500216960907,"does":-0.21166840195655823,"tribulation":-0.20778495073318481,"mean":-0.126319020986557,"definition":-0.5157315135002136,"of":-0.6749648451805115,"card":-0.18265412747859955,"define":-0.6628050208091736,"phone":-0.3698170483112335,"apple":-0.05171138048171997,"feminist":-0.1383841186761856,"explain":-0.35224679112434387,"sanitize":0.027051998302340508,"means":-0.13301490247249603,"defintion":-0.23344755172729492,"watch":-0.16125933825969696,"sink":-0.024245934560894966,"case":-0.2023172527551651,"spray":0.033021118491888046,"explore":-0.3558712303638458,"would":-0.03802436590194702,"you":-0.046959079802036285,"be":-0.04815167933702469,"able":-0.2533915638923645,"meaning":-0.26672378182411194,"life":0.058528799563646317,"roo":-0.09794502705335617,"mate":-0.1580127626657486,"send":0.20339849591255188,"text":0.780905544757843,"pj":-0.07689227163791656,"that":0.21075505018234253,"says":0.18396013975143433,"world":0.06264343112707138,"matt":0.36305031180381775,"chris":-0.04884517937898636,"jon":0.012269665487110615,"colin":0.0027297569904476404,"message":0.3792794346809387,"eric":0.26416805386543274,"micheal":0.18530449271202087,"hows":-0.14040926098823547,"your":0.12957632541656494,"been":-0.009005749598145485,"pat":0.20553253591060638}},"13":{"bias":-0.23149247467517853,"weights":{"whats":-0.0856037586927414,"weather":0.010979429818689823,"like":0.02709251269698143,"in":-0.15390454232692719,"omaha":0.07140485942363739,"san":0.04500146582722664,"juan":0.10988718271255493,"new":0.17123126983642578,"york":-0.017714979127049446,"cupertino":0.12232286483049393,"albuquerque":0.012614155188202858,"tell":0.14173351228237152,"about":-0.14156170189380646,"las":-0.20690274238586426,"vegas":-0.0607028529047966,"pyeongyang":0.06885746121406555,"philadelphia":0.12913323938846588,"temperature":0.02266453392803669,"outside":0.07365213334560394,"diego":-0.05453363060951233,"snowing":-0.0875324159860611,"raining":0.1780945211648941,"sleeting":0.24796439707279205,"hailing":0.2045881152153015,"hello":-0.47092801332473755,"there":0.003225580556318164,"friend":0.021822577342391014,"good":-0.25153353810310364,"morning":0.13598428666591644,"day":-0.12324126809835434,"evening":0.06508343666791916,"hey":-0.292481392621994,"bye":-0.1776282787322998,"goodbye":-0.2338671237230301,"have":-0.2380753606557846,"nice":0.02927669696509838,"god":-0.001443986315280199,"bless":-0.004253009799867868,"how":0.21923761069774628,"do":-0.02074776403605938,"get":0.1729150414466858,"to":0.27420473098754883,"art":-0.04858451709151268,"museum":0.15689992904663086,"denver":-0.11210528016090393,"nearest":-0.07597009837627411,"gas":-0.14230920374393463,"station":0.184958353638649,"my":0.38150554895401,"house":0.16569970548152924,"fastest":0.09247235208749771,"way":0.16337230801582336,"home":0.01086799893528223,"work":-0.0331018902361393,"quickest":-0.12210747599601746,"coffee":0.20228610932826996,"which":0.14323340356349945,"go":-0.055031854659318924,"googleplex":-0.016966726630926132,"stanford":0.17573359608650208,"university":0.11793610453605652,"airport":0.05683423578739166,"directions":0.23869407176971436,"best":-0.06193915009498596,"buy":0.22616074979305267,"village":0.15708722174167633,"inn":0.027031490579247475,"id":0.058331817388534546,"uncle":-0.019696030765771866,"jeffs":0.09352564811706543,"pizzaria":-0.020262105390429497,"bar":0.1078905239701271,"donglington":-0.1755666434764862,"ner":0.21571046113967896,"prep":-0.06894148141145706,"take":0.23878894746303558,"set":-0.06124739348888397,"timer":-0.23074571788311005,"ten":0.04676332324743271,"minutes":-0.22784383594989777,"hour":0.014666224829852581,"start":0.028418106958270073,"five":-0.06841935217380524,"twenty":-0.220183327794075,"alarm":0.24855105578899384,"seen":-0.09475632011890411,"oclock":-0.0437028706073761,"tomorrow":0.1988781839609146,"six":0.09156344830989838,"thirty":-0.09669111669063568,"wake":0.30793797969818115,"up":-0.21363668143749237,"at":0.26455286145210266,"noon":0.16327445209026337,"time":0.1940314769744873,"meeting":0.045541249215602875,"play":0.05303842946887016,"some":0.05417760834097862,"classical":-0.09707698971033096,"music":0.3470514416694641,"on":0.09144256263971329,"spotify":0.22188791632652283,"listen":0.03290487825870514,"undertale":-0.020232565701007843,"rock":0.07735203206539154,"daily":0.2382115125656128,"mix":-0.10590094327926636,"drop":0.09723834693431854,"sick":-0.09576012194156647,"beats":0.15417665243148804,"what":0.33639994263648987,"does":0.17783021926879883,"tribulation":0.08076955378055573,"mean":0.3925177752971649,"definition":0.29116836190223694,"of":0.4092707931995392,"card":-0.020412305369973183,"define":0.65236496925354,"phone":0.37892791628837585,"apple":0.3249760866165161,"feminist":-0.010061642155051231,"explain":0.12935088574886322,"sanitize":0.062016792595386505,"means":0.1536826491355896,"defintion":0.05239204317331314,"watch":0.00016743810556363314,"sink":0.1461459994316101,"case":0.08364831656217575,"spray":-0.14293110370635986,"explore":0.09910889714956284,"would":-0.10861727595329285,"you":0.11854896694421768,"be":0.12116871029138565,"able":0.21738527715206146,"meaning":-0.09863434731960297,"life":0.2514316439628601,"roo":-0.10624023526906967,"mate":-0.3636116087436676,"send":-0.23558874428272247,"text":-1.0046290159225464,"pj":-0.30619993805885315,"that":-0.29729413986206055,"says":-0.31005164980888367,"world":-0.1444731056690216,"matt":-0.24402926862239838,"chris":-0.26759931445121765,"jon":-0.3280796408653259,"colin":-0.2650280296802521,"message":-0.5007724761962891,"eric":-0.28910624980926514,"micheal":0.11561372876167297,"hows":0.1271277666091919,"your":0.0380886048078537,"been":-0.15728844702243805,"pat":-0.2755625247955322}},"14":{"bias":-0.07403691858053207,"weights":{"whats":0.4604657292366028,"weather":0.8402777910232544,"like":0.441128671169281,"in":0.30318841338157654,"omaha":0.10010626167058945,"san":0.18869970738887787,"juan":0.16946247220039368,"new":0.22054523229599,"york":-0.049164608120918274,"cupertino":0.12524764239788055,"albuquerque":0.20032337307929993,"tell":0.4846421778202057,"about":0.4368949234485626,"las":0.22519426047801971,"vegas":0.07881192862987518,"pyeongyang":0.11391507834196091,"philadelphia":0.14058484137058258,"temperature":0.5631575584411621,"outside":0.3063359260559082,"diego":0.051347989588975906,"snowing":1.0450185537338257,"raining":0.7009726166725159,"sleeting":0.604859471321106,"hailing":0.6766012907028198,"hello":-1.0866045951843262,"there":-0.3188838064670563,"friend":-0.23256351053714752,"good":-0.6675450801849365,"morning":-0.242206871509552,"day":-0.7012999057769775,"evening":-0.26763737201690674,"hey":-0.4341810643672943,"bye":-0.7732463479042053,"goodbye":-0.5190868377685547,"have":-0.47776737809181213,"nice":-0.3136327266693115,"god":-0.47542309761047363,"bless":-0.6920341849327087,"how":0.0256477203220129,"do":0.26047882437705994,"get":0.2653331756591797,"to":0.03573834151029587,"art":0.0024541609454900026,"museum":0.12320901453495026,"denver":-0.13401085138320923,"nearest":0.04830120503902435,"gas":0.1078128069639206,"station":-0.046128615736961365,"my":-0.14347988367080688,"house":0.11859216541051865,"fastest":-0.10955583304166794,"way":-0.17618641257286072,"home":0.16256631910800934,"work":-0.0605267696082592,"quickest":0.04141460359096527,"coffee":-0.15733230113983154,"which":-0.04710903763771057,"go":0.16189482808113098,"googleplex":0.20533408224582672,"stanford":-0.02190297469496727,"university":0.18199001252651215,"airport":0.13992074131965637,"directions":-0.08724122494459152,"best":-0.0003620093921199441,"buy":0.2593984305858612,"village":0.043151311576366425,"inn":0.18335367739200592,"id":-0.17955128848552704,"uncle":0.117781862616539,"jeffs":-0.012449136935174465,"pizzaria":0.07826323062181473,"bar":0.1281161606311798,"donglington":-0.11460372060537338,"ner":-0.038437619805336,"prep":0.1332411915063858,"take":0.11343313753604889,"set":-0.06314455717802048,"timer":0.5305895805358887,"ten":0.20069299638271332,"minutes":0.22859542071819305,"hour":0.16108566522598267,"start":0.21011938154697418,"five":0.10861144959926605,"twenty":0.24460764229297638,"alarm":-0.011782624758780003,"seen":0.14863575994968414,"oclock":-0.22864694893360138,"tomorrow":-0.15874521434307098,"six":-0.1328163892030716,"thirty":-0.04166843369603157,"wake":-0.1118786633014679,"up":-0.33896368741989136,"at":0.21511459350585938,"noon":0.20074793696403503,"time":-0.06092199310660362,"meeting":0.023523131385445595,"play":-0.17794212698936462,"some":-0.09008420258760452,"classical":0.07721366733312607,"music":-0.24129605293273926,"on":-0.20904235541820526,"spotify":-0.21685272455215454,"listen":0.04423479735851288,"undertale":-0.055171091109514236,"rock":0.0343400277197361,"daily":-0.2160295844078064,"mix":-0.19106218218803406,"drop":0.021052299067378044,"sick":-0.20746508240699768,"beats":-0.3048771321773529,"what":0.2398541271686554,"does":0.07541122287511826,"tribulation":0.0773625299334526,"mean":0.21334722638130188,"definition":0.14800743758678436,"of":0.05321861431002617,"card":0.17205101251602173,"define":0.4618772566318512,"phone":-0.03595207631587982,"apple":0.1932671070098877,"feminist":0.06375265121459961,"explain":0.1252700239419937,"sanitize":0.1909753829240799,"means":0.12086083739995956,"defintion":0.18174418807029724,"watch":0.22434011101722717,"sink":0.1495310217142105,"case":-0.023112209513783455,"spray":0.10776180028915405,"explore":-0.004156875889748335,"would":-0.10650087147951126,"you":-0.05127410218119621,"be":-0.05782178044319153,"able":0.08424904942512512,"meaning":0.04136115685105324,"life":-0.10088496655225754,"roo":-0.22615444660186768,"mate":-0.40394294261932373,"send":-0.21466109156608582,"text":-1.105107069015503,"pj":0.004647855181246996,"that":-0.016858596354722977,"says":-0.017869478091597557,"world":-0.2078564614057541,"matt":-0.3066689670085907,"chris":-0.35194143652915955,"jon":-0.35956671833992004,"colin":-0.2953391671180725,"message":-0.6377784013748169,"eric":-0.3723509907722473,"micheal":-0.09200744330883026,"hows":-0.16873469948768616,"your":0.18938158452510834,"been":0.010799429379403591,"pat":-0.37779924273490906}},"15":{"bias":-0.23185387253761292,"weights":{"whats":-0.203963503241539,"weather":-0.46621939539909363,"like":-0.13465850055217743,"in":0.09313811361789703,"omaha":0.09353850036859512,"san":-0.16907741129398346,"juan":0.0739608034491539,"new":0.14227667450904846,"york":-0.20811088383197784,"cupertino":-0.1898023635149002,"albuquerque":0.018657181411981583,"tell":0.10074550658464432,"about":-0.359828919172287,"las":-0.13313648104667664,"vegas":0.035707127302885056,"pyeongyang":0.062481772154569626,"philadelphia":-0.09843860566616058,"temperature":-0.3911832273006439,"outside":-0.21082089841365814,"diego":0.00796497892588377,"snowing":-0.21030978858470917,"raining":-0.41531088948249817,"sleeting":-0.25428545475006104,"hailing":-0.41846027970314026,"hello":0.6149647831916809,"there":-0.07157914340496063,"friend":0.1331235021352768,"good":-0.09493260830640793,"morning":0.3193497657775879,"day":0.09334158152341843,"evening":0.01922260969877243,"hey":0.2712021768093109,"bye":-0.3872683644294739,"goodbye":0.059634871780872345,"have":-0.10855527967214584,"nice":-0.2858492136001587,"god":-0.2522449791431427,"bless":0.018538033589720726,"how":-0.030369050800800323,"do":-0.3973082900047302,"get":-0.34564974904060364,"to":-0.3080560863018036,"art":-0.1731165647506714,"museum":0.12468667328357697,"denver":-0.23278743028640747,"nearest":-0.20344416797161102,"gas":-0.05397360399365425,"station":-0.045957617461681366,"my":0.0887342169880867,"house":-0.3050685226917267,"fastest":-0.13249856233596802,"way":-0.2759343385696411,"home":-0.45920318365097046,"work":0.08224241435527802,"quickest":0.09519484639167786,"coffee":0.09366980195045471,"which":-0.14371763169765472,"go":-0.09039813280105591,"googleplex":0.16080224514007568,"stanford":0.1828029453754425,"university":-0.027288906276226044,"airport":-0.10157079249620438,"directions":-0.33328720927238464,"best":-0.05711769685149193,"buy":0.03962073102593422,"village":-0.2621462047100067,"inn":-0.17232240736484528,"id":-0.15912877023220062,"uncle":-0.1692892611026764,"jeffs":-0.08705329149961472,"pizzaria":-0.14878301322460175,"bar":-0.039289090782403946,"donglington":-0.1340673267841339,"ner":0.12100677192211151,"prep":-0.11960505694150925,"take":-0.5557518601417542,"set":0.26437315344810486,"timer":-0.42075613141059875,"ten":0.05846397951245308,"minutes":-0.1822911947965622,"hour":-0.28744980692863464,"start":0.0726860985159874,"five":0.17979557812213898,"twenty":-0.024955732747912407,"alarm":0.5968342423439026,"seen":-0.015580179169774055,"oclock":0.44093337655067444,"tomorrow":0.37916916608810425,"six":0.4060227870941162,"thirty":0.2916882336139679,"wake":0.5080560445785522,"up":0.6837748885154724,"at":0.13577765226364136,"noon":0.03640962764620781,"time":0.14351780712604523,"meeting":0.15300101041793823,"play":-0.19301795959472656,"some":-0.05072798207402229,"classical":-0.0594811737537384,"music":-0.38334590196609497,"on":-0.19020919501781464,"spotify":-0.21409128606319427,"listen":0.1272965520620346,"undertale":0.09963981062173843,"rock":-0.13119645416736603,"daily":-0.09378157556056976,"mix":-0.22833330929279327,"drop":0.08640939742326736,"sick":-0.07804788649082184,"beats":-0.043942712247371674,"what":0.25110095739364624,"does":0.3276773989200592,"tribulation":0.022716909646987915,"mean":0.2800155580043793,"definition":0.20468799769878387,"of":0.42274177074432373,"card":0.08710980415344238,"define":0.5301971435546875,"phone":0.2829921841621399,"apple":0.1374053806066513,"feminist":0.10111920535564423,"explain":0.00010755533730844036,"sanitize":0.005346812307834625,"means":0.28134891390800476,"defintion":-0.03905177488923073,"watch":-0.08921565115451813,"sink":-0.0868358314037323,"case":-0.15590032935142517,"spray":0.22385922074317932,"explore":0.20262205600738525,"would":0.1975632607936859,"you":0.1842939555644989,"be":0.21579106152057648,"able":0.27014580368995667,"meaning":0.3119205832481384,"life":0.06592481583356857,"roo":-0.06890478730201721,"mate":-0.05634284019470215,"send":0.21501991152763367,"text":0.2619539499282837,"pj":0.074896439909935,"that":0.018313733860850334,"says":0.23449034988880157,"world":-0.057611070573329926,"matt":0.056169286370277405,"chris":0.07607259601354599,"jon":0.26812711358070374,"colin":-0.10288306325674057,"message":0.10929102450609207,"eric":0.28434327244758606,"micheal":0.10943683236837387,"hows":0.08169205486774445,"your":0.20804035663604736,"been":0.004337424878031015,"pat":-0.035229381173849106}},"16":{"bias":-0.23456688225269318,"weights":{"whats":0.4143698811531067,"weather":-0.04959550127387047,"like":-0.20393261313438416,"in":0.3962882161140442,"omaha":-0.00015911273658275604,"san":0.14005978405475616,"juan":-0.003110663965344429,"new":0.15090608596801758,"york":0.0416988767683506,"cupertino":-0.021128525957465172,"albuquerque":-0.030784571543335915,"tell":-0.10858648270368576,"about":0.012185581028461456,"las":0.07581931352615356,"vegas":-0.18109723925590515,"pyeongyang":0.0076100206933915615,"philadelphia":0.09238624572753906,"temperature":0.0768352821469307,"outside":-0.006223281379789114,"diego":-0.015164664946496487,"snowing":0.1338813602924347,"raining":0.0313478447496891,"sleeting":0.0991920605301857,"hailing":0.09605986624956131,"hello":-0.8843652606010437,"there":-0.34301120042800903,"friend":-0.1471129059791565,"good":-0.5209323763847351,"morning":-0.04219313710927963,"day":-0.5114304423332214,"evening":-0.15935318171977997,"hey":-0.48845550417900085,"bye":-0.10580281913280487,"goodbye":-0.06708983331918716,"have":-0.3833293318748474,"nice":-0.3554607331752777,"god":-0.4732581377029419,"bless":-0.4721378982067108,"how":0.2814004123210907,"do":0.30359509587287903,"get":0.3644051253795624,"to":0.9711809754371643,"art":0.13756291568279266,"museum":0.2510649859905243,"denver":0.22552059590816498,"nearest":-0.09771757572889328,"gas":0.15546369552612305,"station":-0.007553330156952143,"my":0.18998266756534576,"house":0.3760538399219513,"fastest":-0.024525947868824005,"way":0.15838991105556488,"home":0.46026623249053955,"work":0.2742795944213867,"quickest":0.12928591668605804,"coffee":0.06491994857788086,"which":0.04289472475647926,"go":0.1860431283712387,"googleplex":0.09573375433683395,"stanford":0.20858284831047058,"university":-0.04848003014922142,"airport":-0.08500804007053375,"directions":0.5840885639190674,"best":0.3092724084854126,"buy":0.011764809489250183,"village":0.2966080605983734,"inn":0.13117562234401703,"id":0.03683239221572876,"uncle":0.0531097836792469,"jeffs":-0.050881754606962204,"pizzaria":-0.06382488459348679,"bar":-0.03248000517487526,"donglington":-0.057080354541540146,"ner":0.023837890475988388,"prep":0.257667601108551,"take":0.7255008220672607,"set":-0.04295337200164795,"timer":-0.8166554570198059,"ten":-0.19513612985610962,"minutes":-0.5052671432495117,"hour":-0.2821638882160187,"start":-0.2266552597284317,"five":-0.12289893627166748,"twenty":0.09130082279443741,"alarm":0.4995293915271759,"seen":0.15117323398590088,"oclock":0.4527868330478668,"tomorrow":0.30956944823265076,"six":0.14218255877494812,"thirty":0.3127199113368988,"wake":0.30866995453834534,"up":0.7038722038269043,"at":0.007257206365466118,"noon":0.310182124376297,"time":0.1274268925189972,"meeting":0.025679046288132668,"play":0.05431441590189934,"some":-0.17846545577049255,"classical":0.10470815002918243,"music":-0.07777896523475647,"on":-0.06814351677894592,"spotify":-0.16135267913341522,"listen":-0.2376125156879425,"undertale":-0.025725018233060837,"rock":-0.1523975431919098,"daily":-0.06172284483909607,"mix":0.176523819565773,"drop":-0.1694573611021042,"sick":-0.011914820410311222,"beats":-0.14414465427398682,"what":-0.1587447226047516,"does":-0.09496141225099564,"tribulation":-0.12629243731498718,"mean":-0.2265435755252838,"definition":-0.20211243629455566,"of":-0.14682631194591522,"card":-0.05752315744757652,"define":-0.2981134355068207,"phone":-0.15616625547409058,"apple":0.01723087579011917,"feminist":-0.11903458088636398,"explain":-0.21549998223781586,"sanitize":0.0891709104180336,"means":-0.16169169545173645,"defintion":0.04761909320950508,"watch":-0.19081945717334747,"sink":0.16968150436878204,"case":0.13909433782100677,"spray":-0.017964908853173256,"explore":-0.2645157277584076,"would":-0.12870468199253082,"you":-0.27032747864723206,"be":0.03899648040533066,"able":-0.13611507415771484,"meaning":-0.12806978821754456,"life":-0.25819987058639526,"roo":-0.0051211710087955,"mate":-0.034403350204229355,"send":0.2981076240539551,"text":1.0246517658233643,"pj":0.23262041807174683,"that":0.18813614547252655,"says":0.18741492927074432,"world":0.0500962994992733,"matt":0.21844525635242462,"chris":0.3203660249710083,"jon":0.19632965326309204,"colin":0.14239926636219025,"message":0.1731274127960205,"eric":0.24855370819568634,"micheal":0.1423621028661728,"hows":-0.12198678404092789,"your":-0.08262770622968674,"been":0.13150741159915924,"pat":0.4412347674369812}},"17":{"bias":-0.20113426446914673,"weights":{"whats":-0.1749899834394455,"weather":-0.6663095355033875,"like":-0.31097185611724854,"in":0.028144998475909233,"omaha":-0.08089666068553925,"san":0.1407172977924347,"juan":0.04965914040803909,"new":-0.07610786706209183,"york":0.08583558350801468,"cupertino":0.14923535287380219,"albuquerque":-0.17895498871803284,"tell":0.10210029035806656,"about":-0.41967910528182983,"las":0.17068220674991608,"vegas":0.06778640300035477,"pyeongyang":-0.2057919204235077,"philadelphia":0.0527644045650959,"temperature":-0.2527255117893219,"outside":-0.10496016591787338,"diego":0.11756903678178787,"snowing":-0.49941086769104004,"raining":-0.6377515196800232,"sleeting":-0.5116869211196899,"hailing":-0.527540385723114,"hello":-0.3826436996459961,"there":-0.0012509414227679372,"friend":-0.09396791458129883,"good":-0.40074867010116577,"morning":-0.2173604816198349,"day":0.0755830854177475,"evening":-0.20363229513168335,"hey":-0.29001912474632263,"bye":0.5270805358886719,"goodbye":0.30006545782089233,"have":0.20318597555160522,"nice":0.25753870606422424,"god":0.2713383436203003,"bless":0.007394658401608467,"how":-0.10423556715250015,"do":-0.31242308020591736,"get":-0.37759706377983093,"to":-0.1728936731815338,"art":0.10775809735059738,"museum":-0.005442585330456495,"denver":0.06167605146765709,"nearest":-0.14190614223480225,"gas":-0.1423216313123703,"station":0.06906407326459885,"my":0.06040841341018677,"house":-0.3263280987739563,"fastest":-0.15188518166542053,"way":-0.04831278324127197,"home":-0.3567502796649933,"work":-0.11854434013366699,"quickest":0.15136927366256714,"coffee":-0.059169381856918335,"which":-0.11036543548107147,"go":-0.20520834624767303,"googleplex":0.12907080352306366,"stanford":0.06516113877296448,"university":0.14648117125034332,"airport":-0.046586208045482635,"directions":-0.24786855280399323,"best":-0.1200285330414772,"buy":-0.11971858888864517,"village":-0.17871378362178802,"inn":-0.2071467787027359,"id":-0.0225851871073246,"uncle":-0.10061284899711609,"jeffs":-0.15661707520484924,"pizzaria":-0.1860678344964981,"bar":-0.05511290580034256,"donglington":0.08615459501743317,"ner":-0.012698150239884853,"prep":-0.3409517705440521,"take":-0.5276347994804382,"set":0.5754328966140747,"timer":0.49708908796310425,"ten":0.2841435968875885,"minutes":0.3693700134754181,"hour":-0.04941222816705704,"start":0.32912692427635193,"five":-0.06507760286331177,"twenty":-0.10678406059741974,"alarm":0.41191351413726807,"seen":0.0731746032834053,"oclock":0.29773181676864624,"tomorrow":0.38567522168159485,"six":0.287350594997406,"thirty":0.18958228826522827,"wake":0.20244841277599335,"up":0.5535111427307129,"at":0.18841810524463654,"noon":-0.007039565127342939,"time":0.357086181640625,"meeting":0.16367195546627045,"play":-0.23644202947616577,"some":-0.07247290015220642,"classical":-0.22921504080295563,"music":0.020487261936068535,"on":0.13089752197265625,"spotify":-0.14511436223983765,"listen":-0.018673798069357872,"undertale":0.08484738320112228,"rock":-0.029180346056818962,"daily":-0.1859179437160492,"mix":-0.1381269097328186,"drop":-0.2777630090713501,"sick":-0.16195853054523468,"beats":-0.053705088794231415,"what":0.5506666302680969,"does":0.21921269595623016,"tribulation":0.08628512173891068,"mean":0.22945907711982727,"definition":0.14343732595443726,"of":0.6521429419517517,"card":0.21753546595573425,"define":0.4467868506908417,"phone":0.013701149262487888,"apple":0.1540089100599289,"feminist":0.07525917887687683,"explain":0.34121882915496826,"sanitize":0.0062044947408139706,"means":0.32011136412620544,"defintion":-0.06376022845506668,"watch":0.07106247544288635,"sink":0.16623230278491974,"case":-0.11047528684139252,"spray":0.12491103261709213,"explore":0.007453972473740578,"would":0.2139044553041458,"you":0.0367300808429718,"be":0.21956555545330048,"able":0.17259131371974945,"meaning":0.07218162715435028,"life":-0.03328068554401398,"roo":0.28275200724601746,"mate":0.023493804037570953,"send":0.5011188983917236,"text":1.0920207500457764,"pj":0.3419460356235504,"that":0.19476981461048126,"says":0.19082313776016235,"world":0.1252938061952591,"matt":0.3723071813583374,"chris":0.13804644346237183,"jon":0.09356489032506943,"colin":0.10244392603635788,"message":0.7371398210525513,"eric":0.2041005641222,"micheal":0.19785946607589722,"hows":-0.006954668555408716,"your":0.19953884184360504,"been":0.25091516971588135,"pat":0.4894876778125763}},"18":{"bias":-0.03872174769639969,"weights":{"whats":-0.013394354842603207,"weather":0.223828986287117,"like":0.024088822305202484,"in":-0.4262389540672302,"omaha":0.19357337057590485,"san":-0.04250338301062584,"juan":0.08809678256511688,"new":-0.02885846234858036,"york":-0.02717924304306507,"cupertino":-0.14467690885066986,"albuquerque":0.11054404824972153,"tell":-0.2960631549358368,"about":-0.04233179986476898,"las":0.15021802484989166,"vegas":-0.08395330607891083,"pyeongyang":-0.1171085312962532,"philadelphia":-0.017774458974599838,"temperature":-0.08936308324337006,"outside":-0.022723078727722168,"diego":-0.08322816342115402,"snowing":-0.04796396195888519,"raining":-0.2116057127714157,"sleeting":-0.1132151260972023,"hailing":0.05402444675564766,"hello":1.2696447372436523,"there":0.2905340790748596,"friend":0.3468647599220276,"good":0.7600588202476501,"morning":0.24940113723278046,"day":0.09993589669466019,"evening":0.2819991111755371,"hey":0.5836141705513,"bye":-0.9592229723930359,"goodbye":-0.3561416566371918,"have":-0.40032845735549927,"nice":-0.14437738060951233,"god":-0.2699468433856964,"bless":-0.02387765422463417,"how":0.3165322542190552,"do":0.10349361598491669,"get":0.533627986907959,"to":0.6803150773048401,"art":-0.034571535885334015,"museum":-0.13080942630767822,"denver":-0.03153518959879875,"nearest":0.05865439400076866,"gas":-0.12864410877227783,"station":0.12600068747997284,"my":-0.19130060076713562,"house":0.1680600643157959,"fastest":0.10675542801618576,"way":0.13099661469459534,"home":0.49936145544052124,"work":0.3023892045021057,"quickest":0.13534481823444366,"coffee":0.2483106106519699,"which":-0.1293751448392868,"go":0.05198259651660919,"googleplex":0.11291872709989548,"stanford":0.18252700567245483,"university":0.16180498898029327,"airport":-0.11471723020076752,"directions":0.3026047348976135,"best":0.13276629149913788,"buy":0.029864655807614326,"village":-0.02859853021800518,"inn":0.24153447151184082,"id":0.1743222177028656,"uncle":0.2289389669895172,"jeffs":0.20415738224983215,"pizzaria":0.060567233711481094,"bar":0.20354874432086945,"donglington":0.06151250749826431,"ner":0.18693548440933228,"prep":0.03868604451417923,"take":0.5732362866401672,"set":-0.9332104325294495,"timer":-0.3910617530345917,"ten":-0.3073340058326721,"minutes":-0.32054635882377625,"hour":-0.2145058959722519,"start":-0.2578052282333374,"five":-0.1562100648880005,"twenty":0.10683441162109375,"alarm":-0.8388240933418274,"seen":-0.3457263708114624,"oclock":-0.3373624384403229,"tomorrow":-0.6208950877189636,"six":-0.21403969824314117,"thirty":-0.37969642877578735,"wake":-0.5179485082626343,"up":-0.5375626087188721,"at":-0.3921007812023163,"noon":-0.3875007629394531,"time":-0.07864157855510712,"meeting":-0.3488381803035736,"play":0.6853718757629395,"some":0.8186632990837097,"classical":0.08555719256401062,"music":0.5600302815437317,"on":0.5252811908721924,"spotify":0.3128158152103424,"listen":0.3410026729106903,"undertale":0.20177915692329407,"rock":0.13882607221603394,"daily":0.2244371473789215,"mix":0.057397402822971344,"drop":0.3722591698169708,"sick":0.1567869633436203,"beats":0.11503316462039948,"what":-0.4432709515094757,"does":-0.3194715678691864,"tribulation":-0.14352625608444214,"mean":-0.4154903292655945,"definition":-0.27300870418548584,"of":-0.4860553443431854,"card":-0.019416578114032745,"define":-0.797381579875946,"phone":-0.14256423711776733,"apple":-0.06748924404382706,"feminist":-0.29962414503097534,"explain":-0.16192710399627686,"sanitize":-0.09874794632196426,"means":-0.20646601915359497,"defintion":0.07338008284568787,"watch":-0.01785060204565525,"sink":0.000969165877904743,"case":-0.042615216225385666,"spray":-0.2027905285358429,"explore":-0.2623671293258667,"would":-0.30796578526496887,"you":-0.3406260311603546,"be":-0.13834723830223083,"able":-0.2955164909362793,"meaning":-0.15328779816627502,"life":-0.23166592419147491,"roo":0.055902279913425446,"mate":-0.05527718365192413,"send":-0.3054758608341217,"text":-0.4386204481124878,"pj":-0.1650041788816452,"that":-0.19544190168380737,"says":-0.053417425602674484,"world":-0.07900454849004745,"matt":-0.20529936254024506,"chris":-0.17195188999176025,"jon":-0.03674575313925743,"colin":-0.020939067006111145,"message":-0.4120287001132965,"eric":-0.045698922127485275,"micheal":-0.2520410716533661,"hows":-0.12559112906455994,"your":-0.2599423825740814,"been":-0.11736397445201874,"pat":-0.206503227353096}},"19":{"bias":-0.0680970624089241,"weights":{"whats":0.40520715713500977,"weather":0.4668669104576111,"like":0.4432760179042816,"in":0.17481198906898499,"omaha":0.06206819787621498,"san":0.03829750791192055,"juan":0.0263590719550848,"new":-0.12222959846258163,"york":0.05441838502883911,"cupertino":0.11508426815271378,"albuquerque":0.07567835599184036,"tell":0.588984489440918,"about":0.2107216864824295,"las":-0.032893337309360504,"vegas":-0.0818285122513771,"pyeongyang":-0.024462342262268066,"philadelphia":0.10704538226127625,"temperature":0.6039838194847107,"outside":0.1820383220911026,"diego":0.039788056164979935,"snowing":0.7815892696380615,"raining":0.7414990663528442,"sleeting":0.6790204048156738,"hailing":0.739779531955719,"hello":-0.6205736994743347,"there":-0.2625456154346466,"friend":-0.20411667227745056,"good":-0.7382928133010864,"morning":-0.2776779234409332,"day":-0.5628024935722351,"evening":-0.19370457530021667,"hey":-0.3187296986579895,"bye":-0.32598307728767395,"goodbye":-0.131429061293602,"have":-0.34560418128967285,"nice":-0.3086946904659271,"god":-0.28413861989974976,"bless":-0.24939489364624023,"how":0.25906988978385925,"do":0.45181557536125183,"get":0.30107444524765015,"to":0.05301971361041069,"art":0.13667485117912292,"museum":-0.014439777471125126,"denver":0.11241903156042099,"nearest":-0.1122720018029213,"gas":0.019845012575387955,"station":-0.13537342846393585,"my":0.16596631705760956,"house":0.05655280128121376,"fastest":0.17246310412883759,"way":0.1581619381904602,"home":0.2398107498884201,"work":0.2035984992980957,"quickest":-0.07318378239870071,"coffee":0.1281314641237259,"which":0.24731995165348053,"go":0.17280252277851105,"googleplex":0.23700492084026337,"stanford":0.09896820783615112,"university":-0.04061815142631531,"airport":0.1699906587600708,"directions":0.3526207208633423,"best":0.21512462198734283,"buy":0.2700621783733368,"village":0.16515865921974182,"inn":0.024893183261156082,"id":0.011968765407800674,"uncle":-0.1414329707622528,"jeffs":0.15175220370292664,"pizzaria":-0.18255746364593506,"bar":0.059836506843566895,"donglington":0.15609070658683777,"ner":-0.05327777937054634,"prep":0.33871257305145264,"take":0.49512380361557007,"set":-0.052820835262537,"timer":-0.11587374657392502,"ten":0.034927163273096085,"minutes":-0.03183738514780998,"hour":0.11857776343822479,"start":0.1138811782002449,"five":-0.03098573349416256,"twenty":-0.19266781210899353,"alarm":0.03552234545350075,"seen":-0.1184142529964447,"oclock":-0.20378509163856506,"tomorrow":-0.055597756057977676,"six":-0.0053974357433617115,"thirty":0.11611384153366089,"wake":-0.04519384726881981,"up":-0.420253723859787,"at":-0.1371006965637207,"noon":-0.019545206800103188,"time":-0.2095610499382019,"meeting":-0.07217106968164444,"play":-0.5081443190574646,"some":-0.6110746264457703,"classical":-0.11929338425397873,"music":-0.7609704732894897,"on":-0.5825616717338562,"spotify":-0.5613860487937927,"listen":-0.27460843324661255,"undertale":-0.19634376466274261,"rock":-0.13848507404327393,"daily":0.025763459503650665,"mix":-0.12710775434970856,"drop":-0.18865667283535004,"sick":-0.0785403922200203,"beats":-0.4424416422843933,"what":0.40780606865882874,"does":0.1150667741894722,"tribulation":0.3860081136226654,"mean":0.3127269446849823,"definition":0.03742142394185066,"of":0.4351641833782196,"card":0.08253725618124008,"define":0.62691730260849,"phone":0.4112313985824585,"apple":0.33080756664276123,"feminist":0.26285749673843384,"explain":0.06764700263738632,"sanitize":0.23663899302482605,"means":0.29177337884902954,"defintion":0.04965324327349663,"watch":0.2529636025428772,"sink":0.05554642155766487,"case":-0.09253650903701782,"spray":0.15253445506095886,"explore":0.18144355714321136,"would":0.004147723782807589,"you":0.17908042669296265,"be":0.1158040389418602,"able":-0.03058522380888462,"meaning":0.11167799681425095,"life":0.03913949802517891,"roo":-0.42536038160324097,"mate":-0.41986140608787537,"send":-0.43012675642967224,"text":-1.3564616441726685,"pj":-0.12624473869800568,"that":-0.1538972705602646,"says":-0.025841254740953445,"world":-0.07467064261436462,"matt":-0.2726045548915863,"chris":-0.20499072968959808,"jon":-0.21018770337104797,"colin":-0.230411559343338,"message":-0.7488707900047302,"eric":-0.4480559825897217,"micheal":0.016862373799085617,"hows":0.09986788034439087,"your":0.12508969008922577,"been":0.006535279098898172,"pat":-0.4665234684944153}},"20":{"bias":-0.27978596091270447,"weights":{"whats":0.04411753639578819,"weather":0.14782671630382538,"like":-0.13617904484272003,"in":0.08438856899738312,"omaha":-0.043058332055807114,"san":-0.05908719822764397,"juan":0.11989040672779083,"new":0.16711176931858063,"york":0.15175464749336243,"cupertino":0.14002211391925812,"albuquerque":0.13752390444278717,"tell":0.024843521416187286,"about":0.08553092926740646,"las":-0.08075718581676483,"vegas":-0.03682675585150719,"pyeongyang":0.15092381834983826,"philadelphia":0.03502604365348816,"temperature":0.1591600477695465,"outside":0.011685764417052269,"diego":-0.14195023477077484,"snowing":0.14032913744449615,"raining":0.10839688032865524,"sleeting":-0.09027157723903656,"hailing":-0.1024545431137085,"hello":-0.4827905595302582,"there":-0.24291589856147766,"friend":-0.07479390501976013,"good":-0.22715170681476593,"morning":-0.29440462589263916,"day":0.03155861422419548,"evening":0.05303487554192543,"hey":-0.10781867057085037,"bye":0.23912343382835388,"goodbye":0.10823839157819748,"have":0.34790095686912537,"nice":0.2452133148908615,"god":0.3384189307689667,"bless":0.298433780670166,"how":0.35137075185775757,"do":-0.052142731845378876,"get":0.03661741688847542,"to":0.08419816195964813,"art":0.04462603107094765,"museum":0.1717558205127716,"denver":0.05472393333911896,"nearest":0.17267361283302307,"gas":-0.0044187502935528755,"station":-0.1337207853794098,"my":0.06735896319150925,"house":-0.016609229147434235,"fastest":0.2675005793571472,"way":0.044550541788339615,"home":0.298825740814209,"work":0.22564220428466797,"quickest":0.1391097456216812,"coffee":0.2110568732023239,"which":-0.08259597420692444,"go":0.2876233756542206,"googleplex":0.1323835700750351,"stanford":0.17016327381134033,"university":-0.12020105868577957,"airport":-0.009782467037439346,"directions":0.38745808601379395,"best":0.20998433232307434,"buy":-0.11563917994499207,"village":0.23346854746341705,"inn":-0.12147152423858643,"id":-0.17187416553497314,"uncle":-0.1453348696231842,"jeffs":-0.008478452451527119,"pizzaria":0.19510717689990997,"bar":-0.06103300303220749,"donglington":-0.003579762065783143,"ner":-0.13872481882572174,"prep":0.10580995678901672,"take":0.07609008252620697,"set":-0.32802069187164307,"timer":0.07530665397644043,"ten":-0.18400034308433533,"minutes":-0.21628613770008087,"hour":-0.1479158103466034,"start":0.003261537989601493,"five":-0.18690192699432373,"twenty":-0.16962029039859772,"alarm":-0.0062330602668225765,"seen":-0.09996326267719269,"oclock":-0.26560354232788086,"tomorrow":0.029491547495126724,"six":0.004937612917274237,"thirty":0.07932396233081818,"wake":-0.021216819062829018,"up":0.06550170481204987,"at":0.07905296236276627,"noon":-0.2603886127471924,"time":-0.05128166452050209,"meeting":0.058133918792009354,"play":-0.3149136006832123,"some":-0.3418008089065552,"classical":-0.1914958506822586,"music":-0.5442957282066345,"on":-0.4800679385662079,"spotify":-0.5188413262367249,"listen":-0.31287074089050293,"undertale":-0.3132404685020447,"rock":-0.0877472311258316,"daily":-0.10007013380527496,"mix":-0.05108940601348877,"drop":-0.33878567814826965,"sick":-0.25113537907600403,"beats":-0.04958946257829666,"what":-0.04142438992857933,"does":0.19232702255249023,"tribulation":-0.13486705720424652,"mean":0.07351268827915192,"definition":0.016824515536427498,"of":-0.01609780639410019,"card":-0.04077348858118057,"define":-0.0023074049968272448,"phone":-0.04033171012997627,"apple":-0.009820997714996338,"feminist":0.16214841604232788,"explain":-0.1907251477241516,"sanitize":0.0704459697008133,"means":-0.08459211140871048,"defintion":-0.1285780668258667,"watch":0.12299209833145142,"sink":-0.13412968814373016,"case":-0.09579916298389435,"spray":0.08438410609960556,"explore":-0.05973511189222336,"would":0.09471828490495682,"you":0.08770991116762161,"be":-0.0020372862927615643,"able":0.1622636616230011,"meaning":-0.1390734165906906,"life":-0.0822589099407196,"roo":0.06168798357248306,"mate":-0.18606245517730713,"send":-0.18041501939296722,"text":0.2816319763660431,"pj":-0.00984647125005722,"that":-0.11002202332019806,"says":-0.13432011008262634,"world":-0.0014630616642534733,"matt":0.19940240681171417,"chris":-0.168913334608078,"jon":-0.07038543373346329,"colin":0.03848762437701225,"message":0.04411625862121582,"eric":-0.16167975962162018,"micheal":-0.19335153698921204,"hows":0.022932153195142746,"your":-0.13409583270549774,"been":0.16401875019073486,"pat":0.05920865386724472}},"21":{"bias":-0.14053107798099518,"weights":{"whats":-0.21096695959568024,"weather":0.45803990960121155,"like":0.11270429193973541,"in":0.21132226288318634,"omaha":0.06981796771287918,"san":0.00976438820362091,"juan":-0.024409715086221695,"new":-0.11299796402454376,"york":-0.06799778342247009,"cupertino":0.07705705612897873,"albuquerque":-0.10790024697780609,"tell":-0.131479412317276,"about":0.3223637342453003,"las":-0.17609190940856934,"vegas":0.04784316569566727,"pyeongyang":-0.14314116537570953,"philadelphia":-0.1725168079137802,"temperature":0.20232822000980377,"outside":0.23370186984539032,"diego":-0.15127772092819214,"snowing":0.40791332721710205,"raining":0.45810049772262573,"sleeting":0.18876859545707703,"hailing":0.42237722873687744,"hello":-0.4270566701889038,"there":-0.18916162848472595,"friend":-0.1295798271894455,"good":-0.2726365327835083,"morning":-0.23460252583026886,"day":0.22635942697525024,"evening":-0.3156018555164337,"hey":-0.2133644074201584,"bye":0.6249504685401917,"goodbye":-0.0063653187826275826,"have":0.30574291944503784,"nice":0.2505289614200592,"god":0.0522017739713192,"bless":0.3692674934864044,"how":-0.24769626557826996,"do":-0.34678736329078674,"get":-0.5232943892478943,"to":-0.8634071350097656,"art":-0.112833671271801,"museum":-0.12442184239625931,"denver":-0.256525456905365,"nearest":-0.2033233940601349,"gas":-0.17432966828346252,"station":-0.20687110722064972,"my":0.09025391191244125,"house":-0.3091132342815399,"fastest":-0.13875645399093628,"way":-0.4511958956718445,"home":-0.5471004247665405,"work":-0.013962021097540855,"quickest":-0.0592520609498024,"coffee":-0.0864577665925026,"which":-0.15965673327445984,"go":-0.18079137802124023,"googleplex":-0.10015472024679184,"stanford":0.029163770377635956,"university":-0.1486513614654541,"airport":-0.04060634225606918,"directions":-0.45166918635368347,"best":-0.13028587400913239,"buy":-0.0758654847741127,"village":-0.11620256304740906,"inn":-0.19762751460075378,"id":-0.15454664826393127,"uncle":-0.01109321415424347,"jeffs":-0.10095687955617905,"pizzaria":0.10537195205688477,"bar":-0.20125170052051544,"donglington":-0.023458566516637802,"ner":-0.0915205180644989,"prep":-0.2876637279987335,"take":-0.5547033548355103,"set":0.6842513680458069,"timer":0.8624581694602966,"ten":0.1821996122598648,"minutes":0.6282414197921753,"hour":0.49805834889411926,"start":0.15417082607746124,"five":0.21170422434806824,"twenty":0.25784265995025635,"alarm":0.006160902790725231,"seen":-0.002857991261407733,"oclock":0.2372889369726181,"tomorrow":0.09898315370082855,"six":0.11038900166749954,"thirty":0.2725847363471985,"wake":0.259794682264328,"up":0.28926292061805725,"at":0.16659674048423767,"noon":0.18922005593776703,"time":0.2734363377094269,"meeting":0.10479733347892761,"play":0.06209942325949669,"some":-0.14153288304805756,"classical":0.16201171278953552,"music":-0.01622522436082363,"on":0.020188460126519203,"spotify":0.0865061804652214,"listen":0.09277196228504181,"undertale":0.24919374287128448,"rock":0.1468956023454666,"daily":-0.023399176076054573,"mix":0.020624222233891487,"drop":0.10989358276128769,"sick":-0.11271902173757553,"beats":-0.11673109233379364,"what":-0.4974977374076843,"does":-0.16600148379802704,"tribulation":-0.16341529786586761,"mean":-0.3163658082485199,"definition":-0.2104380875825882,"of":-0.1651095598936081,"card":-0.08270902931690216,"define":-0.49731388688087463,"phone":-0.14011628925800323,"apple":-0.25803521275520325,"feminist":-0.20511284470558167,"explain":-0.026985812932252884,"sanitize":-0.27185893058776855,"means":-0.004883209243416786,"defintion":-0.09792302548885345,"watch":-0.09007004648447037,"sink":-0.12657257914543152,"case":0.039243023842573166,"spray":-0.06982272118330002,"explore":-0.21039822697639465,"would":0.1479843109846115,"you":0.18112896382808685,"be":0.02868901565670967,"able":0.2101869285106659,"meaning":0.016008179634809494,"life":0.27276429533958435,"roo":0.14954356849193573,"mate":0.04968308284878731,"send":0.38809970021247864,"text":0.05157811567187309,"pj":-0.008764796890318394,"that":-0.008747645653784275,"says":-0.008671336807310581,"world":-0.014006461016833782,"matt":-0.047108013182878494,"chris":-0.2063543051481247,"jon":-0.21604470908641815,"colin":0.07684266567230225,"message":0.18944159150123596,"eric":-0.0403730534017086,"micheal":0.028270700946450233,"hows":0.22086761891841888,"your":-0.06020072475075722,"been":0.16221986711025238,"pat":0.07698129862546921}},"22":{"bias":-0.1480293571949005,"weights":{"whats":-0.23046977818012238,"weather":-0.6867662668228149,"like":-0.3824630677700043,"in":-0.1451462358236313,"omaha":-0.19653382897377014,